<?xml version="1.0"?>
<opencv_storage>
<stage12>
  <maxWeakCount>6</maxWeakCount>
  <stageThreshold>-1.2295665740966797e+00</stageThreshold>
  <weakClassifiers>
    <_>
      <internalNodes>
        0 -1 57232 1.3490861281752586e-02</internalNodes>
      <leafValues>
        -7.7551019191741943e-01 1.</leafValues></_>
    <_>
      <internalNodes>
        0 -1 60270 1.3778101420029998e-03</internalNodes>
      <leafValues>
        -4.5736700296401978e-01 3.6381986737251282e-01</leafValues></_>
    <_>
      <internalNodes>
        0 -1 40256 -2.0477771759033203e-02</internalNodes>
      <leafValues>
        3.8300806283950806e-01 -3.7977725267410278e-01</leafValues></_>
    <_>
      <internalNodes>
        0 -1 89687 -1.2715248391032219e-02</internalNodes>
      <leafValues>
        -5.9720140695571899e-01 2.5994017720222473e-01</leafValues></_>
    <_>
      <internalNodes>
        0 -1 110615 -1.5057384734973311e-03</internalNodes>
      <leafValues>
        4.4382366538047791e-01 -3.8050413131713867e-01</leafValues></_>
    <_>
      <internalNodes>
        0 -1 70270 -1.0083355009555817e-03</internalNodes>
      <leafValues>
        7.0833373069763184e-01 -2.2631974518299103e-01</leafValues></_></weakClassifiers></stage12>
</opencv_storage>
