<?xml version="1.0"?>
<opencv_storage>
<stage17>
  <maxWeakCount>7</maxWeakCount>
  <stageThreshold>-1.1834716796875000e+00</stageThreshold>
  <weakClassifiers>
    <_>
      <internalNodes>
        0 -1 153485 -6.1692491173744202e-02</internalNodes>
      <leafValues>
        1. -7.7189409732818604e-01</leafValues></_>
    <_>
      <internalNodes>
        0 -1 131871 -6.0141743160784245e-03</internalNodes>
      <leafValues>
        2.6281806826591492e-01 -4.8713091015815735e-01</leafValues></_>
    <_>
      <internalNodes>
        0 -1 95357 -4.6862486749887466e-02</internalNodes>
      <leafValues>
        -2.6433548331260681e-01 5.1789194345474243e-01</leafValues></_>
    <_>
      <internalNodes>
        0 -1 70497 -3.6654542200267315e-03</internalNodes>
      <leafValues>
        4.7420346736907959e-01 -2.4220894277095795e-01</leafValues></_>
    <_>
      <internalNodes>
        0 -1 126063 -1.8268283747602254e-04</internalNodes>
      <leafValues>
        3.5291728377342224e-01 -3.4645232558250427e-01</leafValues></_>
    <_>
      <internalNodes>
        0 -1 125078 -1.2073967605829239e-02</internalNodes>
      <leafValues>
        -1. 1.1823328584432602e-01</leafValues></_>
    <_>
      <internalNodes>
        0 -1 55943 -3.4676477313041687e-02</internalNodes>
      <leafValues>
        -9.4366741180419922e-01 1.1094714701175690e-01</leafValues></_></weakClassifiers></stage17>
</opencv_storage>
