<?xml version="1.0"?>
<opencv_storage>
<stage5>
  <maxWeakCount>5</maxWeakCount>
  <stageThreshold>-1.3056534528732300e+00</stageThreshold>
  <weakClassifiers>
    <_>
      <internalNodes>
        0 -1 26291 -9.6015445888042450e-02</internalNodes>
      <leafValues>
        2.0833332836627960e-01 -8.5300666093826294e-01</leafValues></_>
    <_>
      <internalNodes>
        0 -1 145547 8.3704687654972076e-02</internalNodes>
      <leafValues>
        -5.3570258617401123e-01 6.1864578723907471e-01</leafValues></_>
    <_>
      <internalNodes>
        0 -1 7417 5.4421159438788891e-04</internalNodes>
      <leafValues>
        2.0787279307842255e-01 -8.7112545967102051e-01</leafValues></_>
    <_>
      <internalNodes>
        0 -1 160732 8.7980721145868301e-03</internalNodes>
      <leafValues>
        -3.5190108418464661e-01 6.2234205007553101e-01</leafValues></_>
    <_>
      <internalNodes>
        0 -1 148295 -1.7255722777917981e-03</internalNodes>
      <leafValues>
        2.2708413004875183e-01 -9.6032673120498657e-01</leafValues></_></weakClassifiers></stage5>
</opencv_storage>
