<?xml version="1.0"?>
<opencv_storage>
<stage2>
  <maxWeakCount>6</maxWeakCount>
  <stageThreshold>-1.2963110208511353e+00</stageThreshold>
  <weakClassifiers>
    <_>
      <internalNodes>
        0 -1 5195 -4.2018599808216095e-02</internalNodes>
      <leafValues>
        -1.8072289228439331e-01 -8.6473429203033447e-01</leafValues></_>
    <_>
      <internalNodes>
        0 -1 146631 -1.9766497425734997e-03</internalNodes>
      <leafValues>
        -5.2796751260757446e-01 3.3582738041877747e-01</leafValues></_>
    <_>
      <internalNodes>
        0 -1 90005 -2.7591407299041748e-02</internalNodes>
      <leafValues>
        5.3637695312500000e-01 -3.4027081727981567e-01</leafValues></_>
    <_>
      <internalNodes>
        0 -1 24741 -1.6770546790212393e-03</internalNodes>
      <leafValues>
        4.8906031250953674e-01 -3.9915534853935242e-01</leafValues></_>
    <_>
      <internalNodes>
        0 -1 123888 4.4562271796166897e-03</internalNodes>
      <leafValues>
        -3.2399794459342957e-01 5.7476317882537842e-01</leafValues></_>
    <_>
      <internalNodes>
        0 -1 13360 2.1233153529465199e-03</internalNodes>
      <leafValues>
        -3.8799136877059937e-01 4.5903894305229187e-01</leafValues></_></weakClassifiers></stage2>
</opencv_storage>
