<?xml version="1.0"?>
<opencv_storage>
<stage18>
  <maxWeakCount>5</maxWeakCount>
  <stageThreshold>-1.0313851833343506e+00</stageThreshold>
  <weakClassifiers>
    <_>
      <internalNodes>
        0 -1 37991 -1.0148346424102783e-02</internalNodes>
      <leafValues>
        2.6315790414810181e-01 -7.9079496860504150e-01</leafValues></_>
    <_>
      <internalNodes>
        0 -1 136707 -4.7791332006454468e-02</internalNodes>
      <leafValues>
        2.5057235360145569e-01 -4.5537152886390686e-01</leafValues></_>
    <_>
      <internalNodes>
        0 -1 13402 -1.3007875531911850e-03</internalNodes>
      <leafValues>
        -6.7932569980621338e-01 1.6122043132781982e-01</leafValues></_>
    <_>
      <internalNodes>
        0 -1 57773 3.0074819922447205e-02</internalNodes>
      <leafValues>
        1.0271330922842026e-01 -9.6880537271499634e-01</leafValues></_>
    <_>
      <internalNodes>
        0 -1 99359 -4.6018324792385101e-03</internalNodes>
      <leafValues>
        -7.5509625673294067e-01 1.5846554934978485e-01</leafValues></_></weakClassifiers></stage18>
</opencv_storage>
