<?xml version="1.0"?>
<opencv_storage>
<stage16>
  <maxWeakCount>7</maxWeakCount>
  <stageThreshold>-1.4114860296249390e+00</stageThreshold>
  <weakClassifiers>
    <_>
      <internalNodes>
        0 -1 14795 -1.2436045333743095e-02</internalNodes>
      <leafValues>
        8.1818181276321411e-01 -7.8600823879241943e-01</leafValues></_>
    <_>
      <internalNodes>
        0 -1 148193 6.8119773641228676e-04</internalNodes>
      <leafValues>
        -5.2050060033798218e-01 1.6776834428310394e-01</leafValues></_>
    <_>
      <internalNodes>
        0 -1 139170 -1.1820703512057662e-03</internalNodes>
      <leafValues>
        4.4124427437782288e-01 -3.2205283641815186e-01</leafValues></_>
    <_>
      <internalNodes>
        0 -1 132166 -3.2032612711191177e-02</internalNodes>
      <leafValues>
        -3.3981975913047791e-01 4.1435417532920837e-01</leafValues></_>
    <_>
      <internalNodes>
        0 -1 66834 6.6949590109288692e-04</internalNodes>
      <leafValues>
        -4.0778568387031555e-01 3.0767914652824402e-01</leafValues></_>
    <_>
      <internalNodes>
        0 -1 127485 -9.8284147679805756e-03</internalNodes>
      <leafValues>
        -6.7569786310195923e-01 2.2361601889133453e-01</leafValues></_>
    <_>
      <internalNodes>
        0 -1 143866 -2.6880132034420967e-02</internalNodes>
      <leafValues>
        1.7074015736579895e-01 -6.9834858179092407e-01</leafValues></_></weakClassifiers></stage16>
</opencv_storage>
