<?xml version="1.0"?>
<opencv_storage>
<cascade>
  <stageType>BOOST</stageType>
  <featureType>HAAR</featureType>
  <height>24</height>
  <width>24</width>
  <stageParams>
    <boostType>GAB</boostType>
    <minHitRate>9.9500000476837158e-01</minHitRate>
    <maxFalseAlarm>5.0000000000000000e-01</maxFalseAlarm>
    <weightTrimRate>9.4999999999999996e-01</weightTrimRate>
    <maxDepth>1</maxDepth>
    <maxWeakCount>100</maxWeakCount></stageParams>
  <featureParams>
    <maxCatCount>0</maxCatCount>
    <featSize>1</featSize>
    <mode>BASIC</mode></featureParams>
  <stageNum>24</stageNum>
  <stages>
    <!-- stage 0 -->
    <_>
      <maxWeakCount>3</maxWeakCount>
      <stageThreshold>-1.0492866039276123e+00</stageThreshold>
      <weakClassifiers>
        <_>
          <internalNodes>
            0 -1 12 -4.8449125140905380e-02</internalNodes>
          <leafValues>
            4.7368422150611877e-01 -7.8217822313308716e-01</leafValues></_>
        <_>
          <internalNodes>
            0 -1 74 -9.9207647144794464e-03</internalNodes>
          <leafValues>
            -8.5867780447006226e-01 4.5856332778930664e-01</leafValues></_>
        <_>
          <internalNodes>
            0 -1 110 1.9487097859382629e-02</internalNodes>
          <leafValues>
            -6.6429299116134644e-01 5.9964650869369507e-01</leafValues></_></weakClassifiers></_>
    <!-- stage 1 -->
    <_>
      <maxWeakCount>3</maxWeakCount>
      <stageThreshold>-1.2414560317993164e+00</stageThreshold>
      <weakClassifiers>
        <_>
          <internalNodes>
            0 -1 45 -3.1339000910520554e-02</internalNodes>
          <leafValues>
            -9.4666665792465210e-01 1.5625000000000000e-01</leafValues></_>
        <_>
          <internalNodes>
            0 -1 14 -1.6963824629783630e-02</internalNodes>
          <leafValues>
            4.0467560291290283e-01 -6.2986445426940918e-01</leafValues></_>
        <_>
          <internalNodes>
            0 -1 6 -6.4347967505455017e-02</internalNodes>
          <leafValues>
            -8.8860017061233521e-01 3.3507508039474487e-01</leafValues></_></weakClassifiers></_>
    <!-- stage 2 -->
    <_>
      <maxWeakCount>5</maxWeakCount>
      <stageThreshold>-6.8635106086730957e-01</stageThreshold>
      <weakClassifiers>
        <_>
          <internalNodes>
            0 -1 16 -9.8806675523519516e-03</internalNodes>
          <leafValues>
            4.7222220897674561e-01 -7.5728154182434082e-01</leafValues></_>
        <_>
          <internalNodes>
            0 -1 94 2.8529496863484383e-02</internalNodes>
          <leafValues>
            -7.3921692371368408e-01 5.4901206493377686e-01</leafValues></_>
        <_>
          <internalNodes>
            0 -1 72 6.7000225186347961e-02</internalNodes>
          <leafValues>
            -3.5391545295715332e-01 9.2199695110321045e-01</leafValues></_>
        <_>
          <internalNodes>
            0 -1 7 -9.3958470970392227e-03</internalNodes>
          <leafValues>
            5.4600816965103149e-01 -6.0929012298583984e-01</leafValues></_>
        <_>
          <internalNodes>
            0 -1 104 1.7926860600709915e-02</internalNodes>
          <leafValues>
            -4.6906325221061707e-01 6.1805474758148193e-01</leafValues></_></weakClassifiers></_>
    <!-- stage 3 -->
    <_>
      <maxWeakCount>5</maxWeakCount>
      <stageThreshold>-9.2679119110107422e-01</stageThreshold>
      <weakClassifiers>
        <_>
          <internalNodes>
            0 -1 96 -8.2615512656047940e-04</internalNodes>
          <leafValues>
            -6.1506277322769165e-01 6.4102566242218018e-01</leafValues></_>
        <_>
          <internalNodes>
            0 -1 1 9.2011317610740662e-02</internalNodes>
          <leafValues>
            -3.2974287867546082e-01 6.8922668695449829e-01</leafValues></_>
        <_>
          <internalNodes>
            0 -1 85 1.1254807934165001e-02</internalNodes>
          <leafValues>
            -6.7623692750930786e-01 3.9327329397201538e-01</leafValues></_>
        <_>
          <internalNodes>
            0 -1 75 -1.3198908418416977e-03</internalNodes>
          <leafValues>
            4.8420393466949463e-01 -4.3328794836997986e-01</leafValues></_>
        <_>
          <internalNodes>
            0 -1 136 -4.5654136920347810e-04</internalNodes>
          <leafValues>
            -8.5946273803710938e-01 2.6356020569801331e-01</leafValues></_></weakClassifiers></_>
    <!-- stage 4 -->
    <_>
      <maxWeakCount>6</maxWeakCount>
      <stageThreshold>-8.9553314447402954e-01</stageThreshold>
      <weakClassifiers>
        <_>
          <internalNodes>
            0 -1 77 -1.7916170181706548e-03</internalNodes>
          <leafValues>
            -6.1702126264572144e-01 5.3488373756408691e-01</leafValues></_>
        <_>
          <internalNodes>
            0 -1 22 4.5134860556572676e-04</internalNodes>
          <leafValues>
            1.4579807221889496e-01 -8.3322620391845703e-01</leafValues></_>
        <_>
          <internalNodes>
            0 -1 107 6.8366462364792824e-03</internalNodes>
          <leafValues>
            -2.6487341523170471e-01 7.9801660776138306e-01</leafValues></_>
        <_>
          <internalNodes>
            0 -1 27 -6.5157145261764526e-02</internalNodes>
          <leafValues>
            5.4604208469390869e-01 -3.5517227649688721e-01</leafValues></_>
        <_>
          <internalNodes>
            0 -1 117 2.7635935693979263e-02</internalNodes>
          <leafValues>
            -3.9618116617202759e-01 5.4283928871154785e-01</leafValues></_>
        <_>
          <internalNodes>
            0 -1 81 2.8234029188752174e-02</internalNodes>
          <leafValues>
            -3.0929741263389587e-01 7.6103323698043823e-01</leafValues></_></weakClassifiers></_>
    <!-- stage 5 -->
    <_>
      <maxWeakCount>6</maxWeakCount>
      <stageThreshold>-7.0129776000976563e-01</stageThreshold>
      <weakClassifiers>
        <_>
          <internalNodes>
            0 -1 52 8.7422328069806099e-03</internalNodes>
          <leafValues>
            -5.6078433990478516e-01 9.1304349899291992e-01</leafValues></_>
        <_>
          <internalNodes>
            0 -1 80 3.3171325922012329e-03</internalNodes>
          <leafValues>
            -4.3510973453521729e-01 6.1691623926162720e-01</leafValues></_>
        <_>
          <internalNodes>
            0 -1 128 6.8563986569643021e-03</internalNodes>
          <leafValues>
            -4.0177816152572632e-01 6.3544827699661255e-01</leafValues></_>
        <_>
          <internalNodes>
            0 -1 66 -6.4882487058639526e-02</internalNodes>
          <leafValues>
            -7.5977498292922974e-01 3.6992502212524414e-01</leafValues></_>
        <_>
          <internalNodes>
            0 -1 83 2.2635478526353836e-03</internalNodes>
          <leafValues>
            -3.1043928861618042e-01 8.0276131629943848e-01</leafValues></_>
        <_>
          <internalNodes>
            0 -1 68 -7.4629631126299500e-04</internalNodes>
          <leafValues>
            7.2936230897903442e-01 -3.4634965658187866e-01</leafValues></_></weakClassifiers></_>
    <!-- stage 6 -->
    <_>
      <maxWeakCount>6</maxWeakCount>
      <stageThreshold>-9.5365697145462036e-01</stageThreshold>
      <weakClassifiers>
        <_>
          <internalNodes>
            0 -1 112 2.0629568025469780e-03</internalNodes>
          <leafValues>
            -6.1904764175415039e-01 4.4680851697921753e-01</leafValues></_>
        <_>
          <internalNodes>
            0 -1 26 5.5283997207880020e-03</internalNodes>
          <leafValues>
            -3.5180279612541199e-01 6.0077226161956787e-01</leafValues></_>
        <_>
          <internalNodes>
            0 -1 11 -2.1913211792707443e-02</internalNodes>
          <leafValues>
            3.7594237923622131e-01 -5.8839750289916992e-01</leafValues></_>
        <_>
          <internalNodes>
            0 -1 116 1.2101163156330585e-03</internalNodes>
          <leafValues>
            -3.7601903080940247e-01 5.1989197731018066e-01</leafValues></_>
        <_>
          <internalNodes>
            0 -1 87 9.3920575454831123e-03</internalNodes>
          <leafValues>
            -5.5723011493682861e-01 4.0233182907104492e-01</leafValues></_>
        <_>
          <internalNodes>
            0 -1 73 7.3211647570133209e-02</internalNodes>
          <leafValues>
            -3.0964598059654236e-01 7.9761141538619995e-01</leafValues></_></weakClassifiers></_>
    <!-- stage 7 -->
    <_>
      <maxWeakCount>4</maxWeakCount>
      <stageThreshold>-6.6240608692169189e-01</stageThreshold>
      <weakClassifiers>
        <_>
          <internalNodes>
            0 -1 42 2.6232264935970306e-02</internalNodes>
          <leafValues>
            -6.4912283420562744e-01 5.1999998092651367e-01</leafValues></_>
        <_>
          <internalNodes>
            0 -1 9 1.4557954668998718e-01</internalNodes>
          <leafValues>
            -4.3203741312026978e-01 5.3651070594787598e-01</leafValues></_>
        <_>
          <internalNodes>
            0 -1 132 -4.1949405567720532e-04</internalNodes>
          <leafValues>
            -7.8248345851898193e-01 2.6909568905830383e-01</leafValues></_>
        <_>
          <internalNodes>
            0 -1 114 -3.8974490016698837e-03</internalNodes>
          <leafValues>
            2.3268948495388031e-01 -8.1111538410186768e-01</leafValues></_></weakClassifiers></_>
    <!-- stage 8 -->
    <_>
      <maxWeakCount>6</maxWeakCount>
      <stageThreshold>-9.7815227508544922e-01</stageThreshold>
      <weakClassifiers>
        <_>
          <internalNodes>
            0 -1 67 1.2676628306508064e-02</internalNodes>
          <leafValues>
            -5.8536583185195923e-01 6.8750000000000000e-01</leafValues></_>
        <_>
          <internalNodes>
            0 -1 35 2.0530117035377771e-04</internalNodes>
          <leafValues>
            2.0197679102420807e-01 -7.7090930938720703e-01</leafValues></_>
        <_>
          <internalNodes>
            0 -1 143 -2.0504556596279144e-02</internalNodes>
          <leafValues>
            2.6989957690238953e-01 -6.7523366212844849e-01</leafValues></_>
        <_>
          <internalNodes>
            0 -1 31 1.3703644275665283e-01</internalNodes>
          <leafValues>
            -4.1975334286689758e-01 4.6817448735237122e-01</leafValues></_>
        <_>
          <internalNodes>
            0 -1 142 -9.1019042883999646e-05</internalNodes>
          <leafValues>
            -6.6843891143798828e-01 3.0265119671821594e-01</leafValues></_>
        <_>
          <internalNodes>
            0 -1 56 -2.0309132523834705e-03</internalNodes>
          <leafValues>
            2.2532548010349274e-01 -9.5261150598526001e-01</leafValues></_></weakClassifiers></_>
    <!-- stage 9 -->
    <_>
      <maxWeakCount>4</maxWeakCount>
      <stageThreshold>-1.0602229833602905e+00</stageThreshold>
      <weakClassifiers>
        <_>
          <internalNodes>
            0 -1 54 6.3712494447827339e-03</internalNodes>
          <leafValues>
            -5.7983195781707764e-01 4.0000000596046448e-01</leafValues></_>
        <_>
          <internalNodes>
            0 -1 25 -3.6275622551329434e-04</internalNodes>
          <leafValues>
            -7.8208392858505249e-01 1.7116357386112213e-01</leafValues></_>
        <_>
          <internalNodes>
            0 -1 5 -2.3795551061630249e-01</internalNodes>
          <leafValues>
            -9.7109180688858032e-01 1.6848897933959961e-01</leafValues></_>
        <_>
          <internalNodes>
            0 -1 41 3.8933375617489219e-04</internalNodes>
          <leafValues>
            1.3320392370223999e-01 -8.9127725362777710e-01</leafValues></_></weakClassifiers></_>
    <!-- stage 10 -->
    <_>
      <maxWeakCount>6</maxWeakCount>
      <stageThreshold>-1.1165829896926880e+00</stageThreshold>
      <weakClassifiers>
        <_>
          <internalNodes>
            0 -1 96 -3.1116470927372575e-04</internalNodes>
          <leafValues>
            -5.3846156597137451e-01 1.</leafValues></_>
        <_>
          <internalNodes>
            0 -1 39 4.5400574803352356e-02</internalNodes>
          <leafValues>
            9.6961364150047302e-02 -1.</leafValues></_>
        <_>
          <internalNodes>
            0 -1 118 -1.0414586868137121e-03</internalNodes>
          <leafValues>
            -7.3597007989883423e-01 2.0247577130794525e-01</leafValues></_>
        <_>
          <internalNodes>
            0 -1 23 -2.8590117581188679e-03</internalNodes>
          <leafValues>
            -7.3297524452209473e-01 1.9721592962741852e-01</leafValues></_>
        <_>
          <internalNodes>
            0 -1 69 -2.1023631561547518e-03</internalNodes>
          <leafValues>
            4.0603402256965637e-01 -4.2346274852752686e-01</leafValues></_>
        <_>
          <internalNodes>
            0 -1 106 -1.4289945363998413e-02</internalNodes>
          <leafValues>
            -5.5061739683151245e-01 3.3066380023956299e-01</leafValues></_></weakClassifiers></_>
    <!-- stage 11 -->
    <_>
      <maxWeakCount>7</maxWeakCount>
      <stageThreshold>-6.1619830131530762e-01</stageThreshold>
      <weakClassifiers>
        <_>
          <internalNodes>
            0 -1 10 -3.4818567335605621e-02</internalNodes>
          <leafValues>
            1.3513512909412384e-01 -6.4705884456634521e-01</leafValues></_>
        <_>
          <internalNodes>
            0 -1 108 1.5524271293543279e-04</internalNodes>
          <leafValues>
            -5.4557204246520996e-01 2.6599121093750000e-01</leafValues></_>
        <_>
          <internalNodes>
            0 -1 97 1.1489756871014833e-03</internalNodes>
          <leafValues>
            -6.5389627218246460e-01 2.4529692530632019e-01</leafValues></_>
        <_>
          <internalNodes>
            0 -1 51 -3.1662093533668667e-05</internalNodes>
          <leafValues>
            4.3287295103073120e-01 -4.2225915193557739e-01</leafValues></_>
        <_>
          <internalNodes>
            0 -1 126 3.0137146823108196e-03</internalNodes>
          <leafValues>
            -2.6284489035606384e-01 7.1388477087020874e-01</leafValues></_>
        <_>
          <internalNodes>
            0 -1 113 -1.4093851204961538e-03</internalNodes>
          <leafValues>
            5.4320037364959717e-01 -3.3128544688224792e-01</leafValues></_>
        <_>
          <internalNodes>
            0 -1 125 -1.3614217750728130e-03</internalNodes>
          <leafValues>
            6.8279558420181274e-01 -2.4623206257820129e-01</leafValues></_></weakClassifiers></_>
    <!-- stage 12 -->
    <_>
      <maxWeakCount>6</maxWeakCount>
      <stageThreshold>-1.0370144844055176e+00</stageThreshold>
      <weakClassifiers>
        <_>
          <internalNodes>
            0 -1 78 3.1194020994007587e-03</internalNodes>
          <leafValues>
            -5.9817349910736084e-01 1.5254236757755280e-01</leafValues></_>
        <_>
          <internalNodes>
            0 -1 62 8.8544905185699463e-02</internalNodes>
          <leafValues>
            -4.7097858786582947e-01 3.1045740842819214e-01</leafValues></_>
        <_>
          <internalNodes>
            0 -1 141 -5.0081260269507766e-04</internalNodes>
          <leafValues>
            -9.1475129127502441e-01 1.4011868834495544e-01</leafValues></_>
        <_>
          <internalNodes>
            0 -1 131 -1.1626353079918772e-04</internalNodes>
          <leafValues>
            -5.0772410631179810e-01 2.4247410893440247e-01</leafValues></_>
        <_>
          <internalNodes>
            0 -1 123 3.1116930767893791e-03</internalNodes>
          <leafValues>
            1.8140250444412231e-01 -7.7502000331878662e-01</leafValues></_>
        <_>
          <internalNodes>
            0 -1 64 3.8362387567758560e-03</internalNodes>
          <leafValues>
            -2.5842365622520447e-01 6.0188144445419312e-01</leafValues></_></weakClassifiers></_>
    <!-- stage 13 -->
    <_>
      <maxWeakCount>7</maxWeakCount>
      <stageThreshold>-9.3919759988784790e-01</stageThreshold>
      <weakClassifiers>
        <_>
          <internalNodes>
            0 -1 86 -4.5637628063559532e-03</internalNodes>
          <leafValues>
            -5.2895754575729370e-01 7.8947371244430542e-01</leafValues></_>
        <_>
          <internalNodes>
            0 -1 4 -2.0155657082796097e-02</internalNodes>
          <leafValues>
            1.6067898273468018e-01 -6.4365381002426147e-01</leafValues></_>
        <_>
          <internalNodes>
            0 -1 53 -2.0942598348483443e-04</internalNodes>
          <leafValues>
            -6.6179627180099487e-01 2.5564154982566833e-01</leafValues></_>
        <_>
          <internalNodes>
            0 -1 90 -1.6554261092096567e-03</internalNodes>
          <leafValues>
            4.7869321703910828e-01 -3.0189856886863708e-01</leafValues></_>
        <_>
          <internalNodes>
            0 -1 79 -3.9838556200265884e-02</internalNodes>
          <leafValues>
            -7.3468774557113647e-01 2.0649985969066620e-01</leafValues></_>
        <_>
          <internalNodes>
            0 -1 65 2.0016217604279518e-02</internalNodes>
          <leafValues>
            -2.2322106361389160e-01 7.2027683258056641e-01</leafValues></_>
        <_>
          <internalNodes>
            0 -1 17 5.7537259999662638e-04</internalNodes>
          <leafValues>
            2.9910254478454590e-01 -5.0794082880020142e-01</leafValues></_></weakClassifiers></_>
    <!-- stage 14 -->
    <_>
      <maxWeakCount>8</maxWeakCount>
      <stageThreshold>-8.4553992748260498e-01</stageThreshold>
      <weakClassifiers>
        <_>
          <internalNodes>
            0 -1 32 -5.7957142591476440e-02</internalNodes>
          <leafValues>
            1.5151515603065491e-01 -6.2264150381088257e-01</leafValues></_>
        <_>
          <internalNodes>
            0 -1 109 -4.4436212629079819e-03</internalNodes>
          <leafValues>
            4.5600062608718872e-01 -2.9534304141998291e-01</leafValues></_>
        <_>
          <internalNodes>
            0 -1 0 -1.4802968502044678e-01</internalNodes>
          <leafValues>
            8.1404429674148560e-01 -1.7183180153369904e-01</leafValues></_>
        <_>
          <internalNodes>
            0 -1 40 -8.3407461643218994e-03</internalNodes>
          <leafValues>
            6.9242280721664429e-01 -1.9172917306423187e-01</leafValues></_>
        <_>
          <internalNodes>
            0 -1 130 -2.2430112585425377e-04</internalNodes>
          <leafValues>
            -6.2531661987304688e-01 2.3429411649703979e-01</leafValues></_>
        <_>
          <internalNodes>
            0 -1 115 6.7279208451509476e-04</internalNodes>
          <leafValues>
            -3.0120551586151123e-01 4.7357922792434692e-01</leafValues></_>
        <_>
          <internalNodes>
            0 -1 15 1.2079467996954918e-03</internalNodes>
          <leafValues>
            2.3486855626106262e-01 -7.0312136411666870e-01</leafValues></_>
        <_>
          <internalNodes>
            0 -1 47 1.2170127592980862e-03</internalNodes>
          <leafValues>
            -3.5115754604339600e-01 4.5469471812248230e-01</leafValues></_></weakClassifiers></_>
    <!-- stage 15 -->
    <_>
      <maxWeakCount>8</maxWeakCount>
      <stageThreshold>-1.0272440910339355e+00</stageThreshold>
      <weakClassifiers>
        <_>
          <internalNodes>
            0 -1 89 -5.5440915748476982e-03</internalNodes>
          <leafValues>
            5.0000000000000000e-01 -5.6097561120986938e-01</leafValues></_>
        <_>
          <internalNodes>
            0 -1 48 -1.6363197937607765e-02</internalNodes>
          <leafValues>
            -5.9752315282821655e-01 1.7607538402080536e-01</leafValues></_>
        <_>
          <internalNodes>
            0 -1 28 -1.0817924141883850e-01</internalNodes>
          <leafValues>
            5.4588830471038818e-01 -2.7076563239097595e-01</leafValues></_>
        <_>
          <internalNodes>
            0 -1 53 5.0385126087348908e-05</internalNodes>
          <leafValues>
            2.5269713997840881e-01 -5.2796083688735962e-01</leafValues></_>
        <_>
          <internalNodes>
            0 -1 60 -1.1198166757822037e-01</internalNodes>
          <leafValues>
            8.8221150636672974e-01 -1.5818431973457336e-01</leafValues></_>
        <_>
          <internalNodes>
            0 -1 29 3.6952537484467030e-03</internalNodes>
          <leafValues>
            -5.0526618957519531e-01 3.0389013886451721e-01</leafValues></_>
        <_>
          <internalNodes>
            0 -1 138 -1.5987706137821078e-04</internalNodes>
          <leafValues>
            -8.6820846796035767e-01 1.8626169860363007e-01</leafValues></_>
        <_>
          <internalNodes>
            0 -1 50 2.7006692253053188e-03</internalNodes>
          <leafValues>
            -4.3446362018585205e-01 3.6193323135375977e-01</leafValues></_></weakClassifiers></_>
    <!-- stage 16 -->
    <_>
      <maxWeakCount>7</maxWeakCount>
      <stageThreshold>-7.6088201999664307e-01</stageThreshold>
      <weakClassifiers>
        <_>
          <internalNodes>
            0 -1 24 1.7960134893655777e-02</internalNodes>
          <leafValues>
            -5.6485354900360107e-01 3.3333334326744080e-01</leafValues></_>
        <_>
          <internalNodes>
            0 -1 84 -6.6714221611618996e-04</internalNodes>
          <leafValues>
            2.9862350225448608e-01 -4.2100417613983154e-01</leafValues></_>
        <_>
          <internalNodes>
            0 -1 103 -2.5367632508277893e-02</internalNodes>
          <leafValues>
            -9.1976201534271240e-01 1.5069188177585602e-01</leafValues></_>
        <_>
          <internalNodes>
            0 -1 70 1.1543526779860258e-03</internalNodes>
          <leafValues>
            -2.6257964968681335e-01 4.9222603440284729e-01</leafValues></_>
        <_>
          <internalNodes>
            0 -1 95 1.8213504925370216e-02</internalNodes>
          <leafValues>
            -2.8290712833404541e-01 5.4680329561233521e-01</leafValues></_>
        <_>
          <internalNodes>
            0 -1 63 -2.8623964637517929e-02</internalNodes>
          <leafValues>
            -2.5606402754783630e-01 5.9133303165435791e-01</leafValues></_>
        <_>
          <internalNodes>
            0 -1 59 -2.0448314025998116e-03</internalNodes>
          <leafValues>
            -5.9859877824783325e-01 2.6430961489677429e-01</leafValues></_></weakClassifiers></_>
    <!-- stage 17 -->
    <_>
      <maxWeakCount>9</maxWeakCount>
      <stageThreshold>-1.0357538461685181e+00</stageThreshold>
      <weakClassifiers>
        <_>
          <internalNodes>
            0 -1 105 -5.9588365256786346e-03</internalNodes>
          <leafValues>
            5.6521737575531006e-01 -5.2941179275512695e-01</leafValues></_>
        <_>
          <internalNodes>
            0 -1 135 9.0515959527692758e-06</internalNodes>
          <leafValues>
            -5.6153380870819092e-01 1.8578356504440308e-01</leafValues></_>
        <_>
          <internalNodes>
            0 -1 2 -3.3716961741447449e-02</internalNodes>
          <leafValues>
            -5.5180716514587402e-01 2.9097524285316467e-01</leafValues></_>
        <_>
          <internalNodes>
            0 -1 36 -6.8673089146614075e-02</internalNodes>
          <leafValues>
            4.2315971851348877e-01 -3.4444171190261841e-01</leafValues></_>
        <_>
          <internalNodes>
            0 -1 37 -1.2487095082178712e-03</internalNodes>
          <leafValues>
            3.5883560776710510e-01 -4.1222217679023743e-01</leafValues></_>
        <_>
          <internalNodes>
            0 -1 8 -4.8315534368157387e-03</internalNodes>
          <leafValues>
            -4.7978264093399048e-01 3.0270498991012573e-01</leafValues></_>
        <_>
          <internalNodes>
            0 -1 19 2.1909300994593650e-04</internalNodes>
          <leafValues>
            2.1855410933494568e-01 -6.9299173355102539e-01</leafValues></_>
        <_>
          <internalNodes>
            0 -1 43 -8.4087550640106201e-03</internalNodes>
          <leafValues>
            9.3251597881317139e-01 -1.8110406398773193e-01</leafValues></_>
        <_>
          <internalNodes>
            0 -1 88 2.8988550184294581e-04</internalNodes>
          <leafValues>
            3.3595818281173706e-01 -5.5170583724975586e-01</leafValues></_></weakClassifiers></_>
    <!-- stage 18 -->
    <_>
      <maxWeakCount>7</maxWeakCount>
      <stageThreshold>-7.6135641336441040e-01</stageThreshold>
      <weakClassifiers>
        <_>
          <internalNodes>
            0 -1 133 2.8904338832944632e-03</internalNodes>
          <leafValues>
            -5.5555558204650879e-01 3.7142857909202576e-01</leafValues></_>
        <_>
          <internalNodes>
            0 -1 61 1.6160514205694199e-03</internalNodes>
          <leafValues>
            1.2893238663673401e-01 -6.8078750371932983e-01</leafValues></_>
        <_>
          <internalNodes>
            0 -1 124 -9.2676319181919098e-03</internalNodes>
          <leafValues>
            1.3858473300933838e-01 -7.8273290395736694e-01</leafValues></_>
        <_>
          <internalNodes>
            0 -1 34 4.8723407089710236e-03</internalNodes>
          <leafValues>
            -2.7814322710037231e-01 4.6701556444168091e-01</leafValues></_>
        <_>
          <internalNodes>
            0 -1 98 8.6493085836991668e-04</internalNodes>
          <leafValues>
            -5.4905986785888672e-01 2.8705400228500366e-01</leafValues></_>
        <_>
          <internalNodes>
            0 -1 102 4.8161908984184265e-02</internalNodes>
          <leafValues>
            3.4075379371643066e-01 -4.9920028448104858e-01</leafValues></_>
        <_>
          <internalNodes>
            0 -1 139 -7.8666175249963999e-04</internalNodes>
          <leafValues>
            -8.2298249006271362e-01 1.9365960359573364e-01</leafValues></_></weakClassifiers></_>
    <!-- stage 19 -->
    <_>
      <maxWeakCount>6</maxWeakCount>
      <stageThreshold>-6.6770297288894653e-01</stageThreshold>
      <weakClassifiers>
        <_>
          <internalNodes>
            0 -1 18 -7.8010652214288712e-03</internalNodes>
          <leafValues>
            1.3432836532592773e-01 -6.2085306644439697e-01</leafValues></_>
        <_>
          <internalNodes>
            0 -1 13 -1.7498943954706192e-02</internalNodes>
          <leafValues>
            8.4130801260471344e-02 -9.5109474658966064e-01</leafValues></_>
        <_>
          <internalNodes>
            0 -1 92 -3.7695243954658508e-03</internalNodes>
          <leafValues>
            -7.7196431159973145e-01 1.6386091709136963e-01</leafValues></_>
        <_>
          <internalNodes>
            0 -1 82 -1.1437551584094763e-03</internalNodes>
          <leafValues>
            6.0674446821212769e-01 -2.4835737049579620e-01</leafValues></_>
        <_>
          <internalNodes>
            0 -1 38 -3.4787466574925929e-05</internalNodes>
          <leafValues>
            3.0926451086997986e-01 -4.4444185495376587e-01</leafValues></_>
        <_>
          <internalNodes>
            0 -1 71 -3.4169538412243128e-03</internalNodes>
          <leafValues>
            5.3267747163772583e-01 -2.7502530813217163e-01</leafValues></_></weakClassifiers></_>
    <!-- stage 20 -->
    <_>
      <maxWeakCount>7</maxWeakCount>
      <stageThreshold>-1.0241940021514893e+00</stageThreshold>
      <weakClassifiers>
        <_>
          <internalNodes>
            0 -1 20 -1.2778429314494133e-02</internalNodes>
          <leafValues>
            8.7500000000000000e-01 -5.1908397674560547e-01</leafValues></_>
        <_>
          <internalNodes>
            0 -1 119 -9.8051934037357569e-04</internalNodes>
          <leafValues>
            7.5187988579273224e-02 -1.</leafValues></_>
        <_>
          <internalNodes>
            0 -1 137 -1.5567874652333558e-04</internalNodes>
          <leafValues>
            -6.3102442026138306e-01 2.3655509948730469e-01</leafValues></_>
        <_>
          <internalNodes>
            0 -1 58 -7.6658307807520032e-04</internalNodes>
          <leafValues>
            4.8974397778511047e-01 -3.1544017791748047e-01</leafValues></_>
        <_>
          <internalNodes>
            0 -1 3 -3.5588659346103668e-02</internalNodes>
          <leafValues>
            -4.5320329070091248e-01 3.7577447295188904e-01</leafValues></_>
        <_>
          <internalNodes>
            0 -1 93 -9.6760049927979708e-06</internalNodes>
          <leafValues>
            4.6020641922950745e-01 -3.4938979148864746e-01</leafValues></_>
        <_>
          <internalNodes>
            0 -1 33 -1.6678452491760254e-02</internalNodes>
          <leafValues>
            -4.6981430053710938e-01 3.3391156792640686e-01</leafValues></_></weakClassifiers></_>
    <!-- stage 21 -->
    <_>
      <maxWeakCount>7</maxWeakCount>
      <stageThreshold>-1.0991339683532715e+00</stageThreshold>
      <weakClassifiers>
        <_>
          <internalNodes>
            0 -1 101 -2.1104587242007256e-02</internalNodes>
          <leafValues>
            7.3913043737411499e-01 -5.4509806632995605e-01</leafValues></_>
        <_>
          <internalNodes>
            0 -1 55 -3.3365078270435333e-02</internalNodes>
          <leafValues>
            6.7513585090637207e-01 -3.3899191021919250e-01</leafValues></_>
        <_>
          <internalNodes>
            0 -1 57 -3.4478405723348260e-04</internalNodes>
          <leafValues>
            4.1036269068717957e-01 -4.2423632740974426e-01</leafValues></_>
        <_>
          <internalNodes>
            0 -1 49 -1.4506166917271912e-04</internalNodes>
          <leafValues>
            -4.7633850574493408e-01 3.5302379727363586e-01</leafValues></_>
        <_>
          <internalNodes>
            0 -1 122 6.1557180015370250e-04</internalNodes>
          <leafValues>
            1.9160638749599457e-01 -7.8510403633117676e-01</leafValues></_>
        <_>
          <internalNodes>
            0 -1 129 -9.6990743259084411e-06</internalNodes>
          <leafValues>
            3.8950964808464050e-01 -4.1215306520462036e-01</leafValues></_>
        <_>
          <internalNodes>
            0 -1 91 3.1273383647203445e-03</internalNodes>
          <leafValues>
            2.2766703367233276e-01 -7.3018419742584229e-01</leafValues></_></weakClassifiers></_>
    <!-- stage 22 -->
    <_>
      <maxWeakCount>7</maxWeakCount>
      <stageThreshold>-6.8971353769302368e-01</stageThreshold>
      <weakClassifiers>
        <_>
          <internalNodes>
            0 -1 30 -2.8317535296082497e-02</internalNodes>
          <leafValues>
            -5.4330706596374512e-01 6.6666668653488159e-01</leafValues></_>
        <_>
          <internalNodes>
            0 -1 99 -5.5267027346417308e-04</internalNodes>
          <leafValues>
            -7.6583731174468994e-01 1.4306500554084778e-01</leafValues></_>
        <_>
          <internalNodes>
            0 -1 111 3.1118381302803755e-03</internalNodes>
          <leafValues>
            -2.2521398961544037e-01 6.0518360137939453e-01</leafValues></_>
        <_>
          <internalNodes>
            0 -1 46 6.1329221352934837e-04</internalNodes>
          <leafValues>
            -2.0509992539882660e-01 6.6181594133377075e-01</leafValues></_>
        <_>
          <internalNodes>
            0 -1 100 1.0089031420648098e-03</internalNodes>
          <leafValues>
            2.3646688461303711e-01 -9.7414058446884155e-01</leafValues></_>
        <_>
          <internalNodes>
            0 -1 44 1.7804997041821480e-03</internalNodes>
          <leafValues>
            -3.2913243770599365e-01 5.8721607923507690e-01</leafValues></_>
        <_>
          <internalNodes>
            0 -1 140 5.4737599566578865e-04</internalNodes>
          <leafValues>
            3.1201273202896118e-01 -5.1749670505523682e-01</leafValues></_></weakClassifiers></_>
    <!-- stage 23 -->
    <_>
      <maxWeakCount>6</maxWeakCount>
      <stageThreshold>-7.8665906190872192e-01</stageThreshold>
      <weakClassifiers>
        <_>
          <internalNodes>
            0 -1 121 2.8619195800274611e-03</internalNodes>
          <leafValues>
            -5.4940712451934814e-01 6.8000000715255737e-01</leafValues></_>
        <_>
          <internalNodes>
            0 -1 21 -5.2576507441699505e-03</internalNodes>
          <leafValues>
            -4.7008988261222839e-01 3.2333239912986755e-01</leafValues></_>
        <_>
          <internalNodes>
            0 -1 76 -1.6798472497612238e-03</internalNodes>
          <leafValues>
            4.5257183909416199e-01 -3.1538951396942139e-01</leafValues></_>
        <_>
          <internalNodes>
            0 -1 127 3.9801904931664467e-03</internalNodes>
          <leafValues>
            -3.4212797880172729e-01 4.8848095536231995e-01</leafValues></_>
        <_>
          <internalNodes>
            0 -1 120 1.6022235155105591e-02</internalNodes>
          <leafValues>
            -2.5945708155632019e-01 5.5626708269119263e-01</leafValues></_>
        <_>
          <internalNodes>
            0 -1 134 -8.8741732761263847e-03</internalNodes>
          <leafValues>
            -4.3055507540702820e-01 3.8185116648674011e-01</leafValues></_></weakClassifiers></_></stages>
  <features>
    <_>
      <rects>
        <_>
          0 0 21 10 -1.</_>
        <_>
          0 5 21 5 2.</_></rects>
      <tilted>0</tilted></_>
    <_>
      <rects>
        <_>
          0 0 24 8 -1.</_>
        <_>
          0 4 24 4 2.</_></rects>
      <tilted>0</tilted></_>
    <_>
      <rects>
        <_>
          0 1 12 2 -1.</_>
        <_>
          4 1 4 2 2.</_></rects>
      <tilted>0</tilted></_>
    <_>
      <rects>
        <_>
          0 1 15 2 -1.</_>
        <_>
          5 1 5 2 2.</_></rects>
      <tilted>0</tilted></_>
    <_>
      <rects>
        <_>
          0 2 10 22 -1.</_>
        <_>
          5 2 5 22 2.</_></rects>
      <tilted>0</tilted></_>
    <_>
      <rects>
        <_>
          0 4 24 20 -1.</_>
        <_>
          0 4 12 10 2.</_>
        <_>
          12 14 12 10 2.</_></rects>
      <tilted>0</tilted></_>
    <_>
      <rects>
        <_>
          0 5 3 11 -1.</_>
        <_>
          1 5 1 11 2.</_></rects>
      <tilted>0</tilted></_>
    <_>
      <rects>
        <_>
          0 6 10 6 -1.</_>
        <_>
          5 6 5 6 2.</_></rects>
      <tilted>0</tilted></_>
    <_>
      <rects>
        <_>
          0 7 1 3 -1.</_>
        <_>
          0 8 1 1 2.</_></rects>
      <tilted>0</tilted></_>
    <_>
      <rects>
        <_>
          0 7 23 16 -1.</_>
        <_>
          0 15 23 8 2.</_></rects>
      <tilted>0</tilted></_>
    <_>
      <rects>
        <_>
          0 8 14 10 -1.</_>
        <_>
          0 8 7 5 2.</_>
        <_>
          7 13 7 5 2.</_></rects>
      <tilted>0</tilted></_>
    <_>
      <rects>
        <_>
          0 9 8 15 -1.</_>
        <_>
          4 9 4 15 2.</_></rects>
      <tilted>0</tilted></_>
    <_>
      <rects>
        <_>
          0 11 12 10 -1.</_>
        <_>
          6 11 6 10 2.</_></rects>
      <tilted>0</tilted></_>
    <_>
      <rects>
        <_>
          0 12 2 12 -1.</_>
        <_>
          0 16 2 4 2.</_></rects>
      <tilted>0</tilted></_>
    <_>
      <rects>
        <_>
          0 13 14 2 -1.</_>
        <_>
          7 13 7 2 2.</_></rects>
      <tilted>0</tilted></_>
    <_>
      <rects>
        <_>
          0 14 2 4 -1.</_>
        <_>
          1 14 1 4 2.</_></rects>
      <tilted>0</tilted></_>
    <_>
      <rects>
        <_>
          0 14 14 1 -1.</_>
        <_>
          7 14 7 1 2.</_></rects>
      <tilted>0</tilted></_>
    <_>
      <rects>
        <_>
          0 15 4 2 -1.</_>
        <_>
          0 15 2 1 2.</_>
        <_>
          2 16 2 1 2.</_></rects>
      <tilted>0</tilted></_>
    <_>
      <rects>
        <_>
          0 17 10 1 -1.</_>
        <_>
          5 17 5 1 2.</_></rects>
      <tilted>0</tilted></_>
    <_>
      <rects>
        <_>
          0 20 2 2 -1.</_>
        <_>
          1 20 1 2 2.</_></rects>
      <tilted>0</tilted></_>
    <_>
      <rects>
        <_>
          0 20 14 2 -1.</_>
        <_>
          0 21 14 1 2.</_></rects>
      <tilted>0</tilted></_>
    <_>
      <rects>
        <_>
          0 22 3 1 -1.</_>
        <_>
          1 22 1 1 2.</_></rects>
      <tilted>0</tilted></_>
    <_>
      <rects>
        <_>
          0 22 2 2 -1.</_>
        <_>
          1 22 1 2 2.</_></rects>
      <tilted>0</tilted></_>
    <_>
      <rects>
        <_>
          0 22 4 2 -1.</_>
        <_>
          2 22 2 2 2.</_></rects>
      <tilted>0</tilted></_>
    <_>
      <rects>
        <_>
          0 22 24 2 -1.</_>
        <_>
          0 23 24 1 2.</_></rects>
      <tilted>0</tilted></_>
    <_>
      <rects>
        <_>
          0 23 2 1 -1.</_>
        <_>
          1 23 1 1 2.</_></rects>
      <tilted>0</tilted></_>
    <_>
      <rects>
        <_>
          1 1 19 2 -1.</_>
        <_>
          1 2 19 1 2.</_></rects>
      <tilted>0</tilted></_>
    <_>
      <rects>
        <_>
          1 7 10 16 -1.</_>
        <_>
          6 7 5 16 2.</_></rects>
      <tilted>0</tilted></_>
    <_>
      <rects>
        <_>
          1 8 12 11 -1.</_>
        <_>
          7 8 6 11 2.</_></rects>
      <tilted>0</tilted></_>
    <_>
      <rects>
        <_>
          1 8 8 12 -1.</_>
        <_>
          1 14 8 6 2.</_></rects>
      <tilted>0</tilted></_>
    <_>
      <rects>
        <_>
          1 8 19 3 -1.</_>
        <_>
          1 9 19 1 2.</_></rects>
      <tilted>0</tilted></_>
    <_>
      <rects>
        <_>
          1 10 23 14 -1.</_>
        <_>
          1 17 23 7 2.</_></rects>
      <tilted>0</tilted></_>
    <_>
      <rects>
        <_>
          1 12 8 12 -1.</_>
        <_>
          5 12 4 12 2.</_></rects>
      <tilted>0</tilted></_>
    <_>
      <rects>
        <_>
          1 15 12 1 -1.</_>
        <_>
          5 15 4 1 2.</_></rects>
      <tilted>0</tilted></_>
    <_>
      <rects>
        <_>
          1 20 14 2 -1.</_>
        <_>
          1 21 14 1 2.</_></rects>
      <tilted>0</tilted></_>
    <_>
      <rects>
        <_>
          1 23 2 1 -1.</_>
        <_>
          2 23 1 1 2.</_></rects>
      <tilted>0</tilted></_>
    <_>
      <rects>
        <_>
          2 3 9 6 -1.</_>
        <_>
          5 3 3 6 2.</_></rects>
      <tilted>0</tilted></_>
    <_>
      <rects>
        <_>
          2 7 2 7 -1.</_>
        <_>
          3 7 1 7 2.</_></rects>
      <tilted>0</tilted></_>
    <_>
      <rects>
        <_>
          2 8 2 1 -1.</_>
        <_>
          3 8 1 1 2.</_></rects>
      <tilted>0</tilted></_>
    <_>
      <rects>
        <_>
          2 11 20 8 -1.</_>
        <_>
          2 11 10 4 2.</_>
        <_>
          12 15 10 4 2.</_></rects>
      <tilted>0</tilted></_>
    <_>
      <rects>
        <_>
          2 12 16 2 -1.</_>
        <_>
          2 12 8 1 2.</_>
        <_>
          10 13 8 1 2.</_></rects>
      <tilted>0</tilted></_>
    <_>
      <rects>
        <_>
          2 15 2 1 -1.</_>
        <_>
          3 15 1 1 2.</_></rects>
      <tilted>0</tilted></_>
    <_>
      <rects>
        <_>
          2 20 21 4 -1.</_>
        <_>
          2 22 21 2 2.</_></rects>
      <tilted>0</tilted></_>
    <_>
      <rects>
        <_>
          2 21 17 2 -1.</_>
        <_>
          2 22 17 1 2.</_></rects>
      <tilted>0</tilted></_>
    <_>
      <rects>
        <_>
          2 22 3 2 -1.</_>
        <_>
          2 23 3 1 2.</_></rects>
      <tilted>0</tilted></_>
    <_>
      <rects>
        <_>
          3 0 6 3 -1.</_>
        <_>
          5 0 2 3 2.</_></rects>
      <tilted>0</tilted></_>
    <_>
      <rects>
        <_>
          3 4 2 4 -1.</_>
        <_>
          3 4 1 2 2.</_>
        <_>
          4 6 1 2 2.</_></rects>
      <tilted>0</tilted></_>
    <_>
      <rects>
        <_>
          3 5 8 2 -1.</_>
        <_>
          3 5 4 1 2.</_>
        <_>
          7 6 4 1 2.</_></rects>
      <tilted>0</tilted></_>
    <_>
      <rects>
        <_>
          3 5 8 8 -1.</_>
        <_>
          3 5 4 4 2.</_>
        <_>
          7 9 4 4 2.</_></rects>
      <tilted>0</tilted></_>
    <_>
      <rects>
        <_>
          3 14 2 1 -1.</_>
        <_>
          4 14 1 1 2.</_></rects>
      <tilted>0</tilted></_>
    <_>
      <rects>
        <_>
          3 19 17 2 -1.</_>
        <_>
          3 20 17 1 2.</_></rects>
      <tilted>0</tilted></_>
    <_>
      <rects>
        <_>
          3 20 2 4 -1.</_>
        <_>
          4 20 1 4 2.</_></rects>
      <tilted>0</tilted></_>
    <_>
      <rects>
        <_>
          3 22 18 2 -1.</_>
        <_>
          3 22 9 1 2.</_>
        <_>
          12 23 9 1 2.</_></rects>
      <tilted>0</tilted></_>
    <_>
      <rects>
        <_>
          3 23 2 1 -1.</_>
        <_>
          4 23 1 1 2.</_></rects>
      <tilted>0</tilted></_>
    <_>
      <rects>
        <_>
          4 3 7 2 -1.</_>
        <_>
          4 4 7 1 2.</_></rects>
      <tilted>0</tilted></_>
    <_>
      <rects>
        <_>
          4 5 18 4 -1.</_>
        <_>
          4 7 18 2 2.</_></rects>
      <tilted>0</tilted></_>
    <_>
      <rects>
        <_>
          4 22 3 1 -1.</_>
        <_>
          5 22 1 1 2.</_></rects>
      <tilted>0</tilted></_>
    <_>
      <rects>
        <_>
          5 2 2 8 -1.</_>
        <_>
          6 2 1 8 2.</_></rects>
      <tilted>0</tilted></_>
    <_>
      <rects>
        <_>
          6 3 6 2 -1.</_>
        <_>
          6 3 3 1 2.</_>
        <_>
          9 4 3 1 2.</_></rects>
      <tilted>0</tilted></_>
    <_>
      <rects>
        <_>
          6 6 8 1 -1.</_>
        <_>
          10 6 4 1 2.</_></rects>
      <tilted>0</tilted></_>
    <_>
      <rects>
        <_>
          6 7 9 10 -1.</_>
        <_>
          6 12 9 5 2.</_></rects>
      <tilted>0</tilted></_>
    <_>
      <rects>
        <_>
          6 10 5 2 -1.</_>
        <_>
          6 11 5 1 2.</_></rects>
      <tilted>0</tilted></_>
    <_>
      <rects>
        <_>
          6 10 10 14 -1.</_>
        <_>
          6 17 10 7 2.</_></rects>
      <tilted>0</tilted></_>
    <_>
      <rects>
        <_>
          6 14 15 3 -1.</_>
        <_>
          11 14 5 3 2.</_></rects>
      <tilted>0</tilted></_>
    <_>
      <rects>
        <_>
          6 21 5 2 -1.</_>
        <_>
          6 22 5 1 2.</_></rects>
      <tilted>0</tilted></_>
    <_>
      <rects>
        <_>
          7 8 5 8 -1.</_>
        <_>
          7 12 5 4 2.</_></rects>
      <tilted>0</tilted></_>
    <_>
      <rects>
        <_>
          7 11 15 3 -1.</_>
        <_>
          7 12 15 1 2.</_></rects>
      <tilted>0</tilted></_>
    <_>
      <rects>
        <_>
          7 22 14 2 -1.</_>
        <_>
          7 23 14 1 2.</_></rects>
      <tilted>0</tilted></_>
    <_>
      <rects>
        <_>
          8 1 4 2 -1.</_>
        <_>
          8 1 2 1 2.</_>
        <_>
          10 2 2 1 2.</_></rects>
      <tilted>0</tilted></_>
    <_>
      <rects>
        <_>
          8 6 10 2 -1.</_>
        <_>
          8 7 10 1 2.</_></rects>
      <tilted>0</tilted></_>
    <_>
      <rects>
        <_>
          8 15 2 8 -1.</_>
        <_>
          9 15 1 8 2.</_></rects>
      <tilted>0</tilted></_>
    <_>
      <rects>
        <_>
          8 18 12 1 -1.</_>
        <_>
          14 18 6 1 2.</_></rects>
      <tilted>0</tilted></_>
    <_>
      <rects>
        <_>
          9 0 14 8 -1.</_>
        <_>
          9 4 14 4 2.</_></rects>
      <tilted>0</tilted></_>
    <_>
      <rects>
        <_>
          9 0 15 10 -1.</_>
        <_>
          9 5 15 5 2.</_></rects>
      <tilted>0</tilted></_>
    <_>
      <rects>
        <_>
          9 3 6 1 -1.</_>
        <_>
          11 3 2 1 2.</_></rects>
      <tilted>0</tilted></_>
    <_>
      <rects>
        <_>
          9 6 5 2 -1.</_>
        <_>
          9 7 5 1 2.</_></rects>
      <tilted>0</tilted></_>
    <_>
      <rects>
        <_>
          9 6 6 2 -1.</_>
        <_>
          9 7 6 1 2.</_></rects>
      <tilted>0</tilted></_>
    <_>
      <rects>
        <_>
          9 14 6 1 -1.</_>
        <_>
          11 14 2 1 2.</_></rects>
      <tilted>0</tilted></_>
    <_>
      <rects>
        <_>
          9 22 5 2 -1.</_>
        <_>
          9 23 5 1 2.</_></rects>
      <tilted>0</tilted></_>
    <_>
      <rects>
        <_>
          10 1 6 4 -1.</_>
        <_>
          12 1 2 4 2.</_></rects>
      <tilted>0</tilted></_>
    <_>
      <rects>
        <_>
          10 1 14 2 -1.</_>
        <_>
          10 1 7 1 2.</_>
        <_>
          17 2 7 1 2.</_></rects>
      <tilted>0</tilted></_>
    <_>
      <rects>
        <_>
          10 2 5 6 -1.</_>
        <_>
          10 5 5 3 2.</_></rects>
      <tilted>0</tilted></_>
    <_>
      <rects>
        <_>
          10 3 2 2 -1.</_>
        <_>
          10 4 2 1 2.</_></rects>
      <tilted>0</tilted></_>
    <_>
      <rects>
        <_>
          10 3 6 2 -1.</_>
        <_>
          10 3 3 1 2.</_>
        <_>
          13 4 3 1 2.</_></rects>
      <tilted>0</tilted></_>
    <_>
      <rects>
        <_>
          10 6 4 2 -1.</_>
        <_>
          10 7 4 1 2.</_></rects>
      <tilted>0</tilted></_>
    <_>
      <rects>
        <_>
          10 8 2 16 -1.</_>
        <_>
          10 16 2 8 2.</_></rects>
      <tilted>0</tilted></_>
    <_>
      <rects>
        <_>
          10 14 7 3 -1.</_>
        <_>
          10 15 7 1 2.</_></rects>
      <tilted>0</tilted></_>
    <_>
      <rects>
        <_>
          10 15 12 4 -1.</_>
        <_>
          10 17 12 2 2.</_></rects>
      <tilted>0</tilted></_>
    <_>
      <rects>
        <_>
          10 19 4 1 -1.</_>
        <_>
          12 19 2 1 2.</_></rects>
      <tilted>0</tilted></_>
    <_>
      <rects>
        <_>
          10 22 14 2 -1.</_>
        <_>
          10 23 14 1 2.</_></rects>
      <tilted>0</tilted></_>
    <_>
      <rects>
        <_>
          11 1 3 2 -1.</_>
        <_>
          11 2 3 1 2.</_></rects>
      <tilted>0</tilted></_>
    <_>
      <rects>
        <_>
          11 2 2 5 -1.</_>
        <_>
          12 2 1 5 2.</_></rects>
      <tilted>0</tilted></_>
    <_>
      <rects>
        <_>
          11 6 1 4 -1.</_>
        <_>
          11 8 1 2 2.</_></rects>
      <tilted>0</tilted></_>
    <_>
      <rects>
        <_>
          11 11 2 2 -1.</_>
        <_>
          11 11 1 1 2.</_>
        <_>
          12 12 1 1 2.</_></rects>
      <tilted>0</tilted></_>
    <_>
      <rects>
        <_>
          11 14 9 10 -1.</_>
        <_>
          11 19 9 5 2.</_></rects>
      <tilted>0</tilted></_>
    <_>
      <rects>
        <_>
          12 11 6 12 -1.</_>
        <_>
          15 11 3 12 2.</_></rects>
      <tilted>0</tilted></_>
    <_>
      <rects>
        <_>
          12 14 3 1 -1.</_>
        <_>
          13 14 1 1 2.</_></rects>
      <tilted>0</tilted></_>
    <_>
      <rects>
        <_>
          12 14 12 1 -1.</_>
        <_>
          18 14 6 1 2.</_></rects>
      <tilted>0</tilted></_>
    <_>
      <rects>
        <_>
          12 15 11 4 -1.</_>
        <_>
          12 17 11 2 2.</_></rects>
      <tilted>0</tilted></_>
    <_>
      <rects>
        <_>
          12 22 2 2 -1.</_>
        <_>
          13 22 1 2 2.</_></rects>
      <tilted>0</tilted></_>
    <_>
      <rects>
        <_>
          12 23 2 1 -1.</_>
        <_>
          13 23 1 1 2.</_></rects>
      <tilted>0</tilted></_>
    <_>
      <rects>
        <_>
          13 4 1 16 -1.</_>
        <_>
          13 12 1 8 2.</_></rects>
      <tilted>0</tilted></_>
    <_>
      <rects>
        <_>
          13 9 6 14 -1.</_>
        <_>
          13 16 6 7 2.</_></rects>
      <tilted>0</tilted></_>
    <_>
      <rects>
        <_>
          13 13 11 6 -1.</_>
        <_>
          13 16 11 3 2.</_></rects>
      <tilted>0</tilted></_>
    <_>
      <rects>
        <_>
          13 15 8 9 -1.</_>
        <_>
          17 15 4 9 2.</_></rects>
      <tilted>0</tilted></_>
    <_>
      <rects>
        <_>
          13 16 4 2 -1.</_>
        <_>
          15 16 2 2 2.</_></rects>
      <tilted>0</tilted></_>
    <_>
      <rects>
        <_>
          14 1 4 3 -1.</_>
        <_>
          14 2 4 1 2.</_></rects>
      <tilted>0</tilted></_>
    <_>
      <rects>
        <_>
          14 1 8 2 -1.</_>
        <_>
          14 2 8 1 2.</_></rects>
      <tilted>0</tilted></_>
    <_>
      <rects>
        <_>
          14 2 2 9 -1.</_>
        <_>
          15 2 1 9 2.</_></rects>
      <tilted>0</tilted></_>
    <_>
      <rects>
        <_>
          14 4 10 1 -1.</_>
        <_>
          19 4 5 1 2.</_></rects>
      <tilted>0</tilted></_>
    <_>
      <rects>
        <_>
          14 10 10 9 -1.</_>
        <_>
          19 10 5 9 2.</_></rects>
      <tilted>0</tilted></_>
    <_>
      <rects>
        <_>
          15 2 2 10 -1.</_>
        <_>
          15 2 1 5 2.</_>
        <_>
          16 7 1 5 2.</_></rects>
      <tilted>0</tilted></_>
    <_>
      <rects>
        <_>
          15 4 6 2 -1.</_>
        <_>
          15 4 3 1 2.</_>
        <_>
          18 5 3 1 2.</_></rects>
      <tilted>0</tilted></_>
    <_>
      <rects>
        <_>
          15 5 6 2 -1.</_>
        <_>
          15 6 6 1 2.</_></rects>
      <tilted>0</tilted></_>
    <_>
      <rects>
        <_>
          15 12 9 1 -1.</_>
        <_>
          18 12 3 1 2.</_></rects>
      <tilted>0</tilted></_>
    <_>
      <rects>
        <_>
          16 2 8 2 -1.</_>
        <_>
          16 2 4 1 2.</_>
        <_>
          20 3 4 1 2.</_></rects>
      <tilted>0</tilted></_>
    <_>
      <rects>
        <_>
          16 8 4 4 -1.</_>
        <_>
          16 8 2 2 2.</_>
        <_>
          18 10 2 2 2.</_></rects>
      <tilted>0</tilted></_>
    <_>
      <rects>
        <_>
          16 9 8 14 -1.</_>
        <_>
          20 9 4 14 2.</_></rects>
      <tilted>0</tilted></_>
    <_>
      <rects>
        <_>
          16 23 4 1 -1.</_>
        <_>
          18 23 2 1 2.</_></rects>
      <tilted>0</tilted></_>
    <_>
      <rects>
        <_>
          17 1 3 1 -1.</_>
        <_>
          18 1 1 1 2.</_></rects>
      <tilted>0</tilted></_>
    <_>
      <rects>
        <_>
          17 3 4 17 -1.</_>
        <_>
          19 3 2 17 2.</_></rects>
      <tilted>0</tilted></_>
    <_>
      <rects>
        <_>
          17 16 6 2 -1.</_>
        <_>
          17 16 3 1 2.</_>
        <_>
          20 17 3 1 2.</_></rects>
      <tilted>0</tilted></_>
    <_>
      <rects>
        <_>
          17 23 2 1 -1.</_>
        <_>
          18 23 1 1 2.</_></rects>
      <tilted>0</tilted></_>
    <_>
      <rects>
        <_>
          17 23 6 1 -1.</_>
        <_>
          20 23 3 1 2.</_></rects>
      <tilted>0</tilted></_>
    <_>
      <rects>
        <_>
          18 14 6 3 -1.</_>
        <_>
          20 14 2 3 2.</_></rects>
      <tilted>0</tilted></_>
    <_>
      <rects>
        <_>
          18 20 3 2 -1.</_>
        <_>
          18 21 3 1 2.</_></rects>
      <tilted>0</tilted></_>
    <_>
      <rects>
        <_>
          18 22 3 2 -1.</_>
        <_>
          18 23 3 1 2.</_></rects>
      <tilted>0</tilted></_>
    <_>
      <rects>
        <_>
          19 1 2 12 -1.</_>
        <_>
          19 7 2 6 2.</_></rects>
      <tilted>0</tilted></_>
    <_>
      <rects>
        <_>
          19 1 4 22 -1.</_>
        <_>
          19 1 2 11 2.</_>
        <_>
          21 12 2 11 2.</_></rects>
      <tilted>0</tilted></_>
    <_>
      <rects>
        <_>
          19 4 2 1 -1.</_>
        <_>
          20 4 1 1 2.</_></rects>
      <tilted>0</tilted></_>
    <_>
      <rects>
        <_>
          19 22 4 1 -1.</_>
        <_>
          21 22 2 1 2.</_></rects>
      <tilted>0</tilted></_>
    <_>
      <rects>
        <_>
          19 23 2 1 -1.</_>
        <_>
          20 23 1 1 2.</_></rects>
      <tilted>0</tilted></_>
    <_>
      <rects>
        <_>
          20 16 2 5 -1.</_>
        <_>
          21 16 1 5 2.</_></rects>
      <tilted>0</tilted></_>
    <_>
      <rects>
        <_>
          20 21 3 2 -1.</_>
        <_>
          20 22 3 1 2.</_></rects>
      <tilted>0</tilted></_>
    <_>
      <rects>
        <_>
          21 9 3 2 -1.</_>
        <_>
          22 9 1 2 2.</_></rects>
      <tilted>0</tilted></_>
    <_>
      <rects>
        <_>
          21 15 2 2 -1.</_>
        <_>
          22 15 1 2 2.</_></rects>
      <tilted>0</tilted></_>
    <_>
      <rects>
        <_>
          21 16 2 3 -1.</_>
        <_>
          22 16 1 3 2.</_></rects>
      <tilted>0</tilted></_>
    <_>
      <rects>
        <_>
          21 19 2 1 -1.</_>
        <_>
          22 19 1 1 2.</_></rects>
      <tilted>0</tilted></_>
    <_>
      <rects>
        <_>
          21 22 2 1 -1.</_>
        <_>
          22 22 1 1 2.</_></rects>
      <tilted>0</tilted></_>
    <_>
      <rects>
        <_>
          22 13 2 2 -1.</_>
        <_>
          23 13 1 2 2.</_></rects>
      <tilted>0</tilted></_>
    <_>
      <rects>
        <_>
          22 14 2 4 -1.</_>
        <_>
          23 14 1 4 2.</_></rects>
      <tilted>0</tilted></_>
    <_>
      <rects>
        <_>
          22 17 2 1 -1.</_>
        <_>
          23 17 1 1 2.</_></rects>
      <tilted>0</tilted></_>
    <_>
      <rects>
        <_>
          22 23 2 1 -1.</_>
        <_>
          23 23 1 1 2.</_></rects>
      <tilted>0</tilted></_>
    <_>
      <rects>
        <_>
          23 5 1 18 -1.</_>
        <_>
          23 11 1 6 2.</_></rects>
      <tilted>0</tilted></_></features></cascade>
</opencv_storage>
