<?xml version="1.0"?>
<opencv_storage>
<stage3>
  <maxWeakCount>5</maxWeakCount>
  <stageThreshold>-9.2679119110107422e-01</stageThreshold>
  <weakClassifiers>
    <_>
      <internalNodes>
        0 -1 126862 -8.2615512656047940e-04</internalNodes>
      <leafValues>
        -6.1506277322769165e-01 6.4102566242218018e-01</leafValues></_>
    <_>
      <internalNodes>
        0 -1 1090 9.2011317610740662e-02</internalNodes>
      <leafValues>
        -3.2974287867546082e-01 6.8922668695449829e-01</leafValues></_>
    <_>
      <internalNodes>
        0 -1 111099 1.1254807934165001e-02</internalNodes>
      <leafValues>
        -6.7623692750930786e-01 3.9327329397201538e-01</leafValues></_>
    <_>
      <internalNodes>
        0 -1 102442 -1.3198908418416977e-03</internalNodes>
      <leafValues>
        4.8420393466949463e-01 -4.3328794836997986e-01</leafValues></_>
    <_>
      <internalNodes>
        0 -1 161031 -4.5654136920347810e-04</internalNodes>
      <leafValues>
        -8.5946273803710938e-01 2.6356020569801331e-01</leafValues></_></weakClassifiers></stage3>
</opencv_storage>
