<?xml version="1.0"?>
<opencv_storage>
<stage10>
  <maxWeakCount>6</maxWeakCount>
  <stageThreshold>-1.1165829896926880e+00</stageThreshold>
  <weakClassifiers>
    <_>
      <internalNodes>
        0 -1 126862 -3.1116470927372575e-04</internalNodes>
      <leafValues>
        -5.3846156597137451e-01 1.</leafValues></_>
    <_>
      <internalNodes>
        0 -1 34751 4.5400574803352356e-02</internalNodes>
      <leafValues>
        9.6961364150047302e-02 -1.</leafValues></_>
    <_>
      <internalNodes>
        0 -1 148296 -1.0414586868137121e-03</internalNodes>
      <leafValues>
        -7.3597007989883423e-01 2.0247577130794525e-01</leafValues></_>
    <_>
      <internalNodes>
        0 -1 13306 -2.8590117581188679e-03</internalNodes>
      <leafValues>
        -7.3297524452209473e-01 1.9721592962741852e-01</leafValues></_>
    <_>
      <internalNodes>
        0 -1 94110 -2.1023631561547518e-03</internalNodes>
      <leafValues>
        4.0603402256965637e-01 -4.2346274852752686e-01</leafValues></_>
    <_>
      <internalNodes>
        0 -1 134435 -1.4289945363998413e-02</internalNodes>
      <leafValues>
        -5.5061739683151245e-01 3.3066380023956299e-01</leafValues></_></weakClassifiers></stage10>
</opencv_storage>
