<?xml version="1.0"?>
<opencv_storage>
<stage16>
  <maxWeakCount>7</maxWeakCount>
  <stageThreshold>-7.6088201999664307e-01</stageThreshold>
  <weakClassifiers>
    <_>
      <internalNodes>
        0 -1 13371 1.7960134893655777e-02</internalNodes>
      <leafValues>
        -5.6485354900360107e-01 3.3333334326744080e-01</leafValues></_>
    <_>
      <internalNodes>
        0 -1 110297 -6.6714221611618996e-04</internalNodes>
      <leafValues>
        2.9862350225448608e-01 -4.2100417613983154e-01</leafValues></_>
    <_>
      <internalNodes>
        0 -1 132747 -2.5367632508277893e-02</internalNodes>
      <leafValues>
        -9.1976201534271240e-01 1.5069188177585602e-01</leafValues></_>
    <_>
      <internalNodes>
        0 -1 97420 1.1543526779860258e-03</internalNodes>
      <leafValues>
        -2.6257964968681335e-01 4.9222603440284729e-01</leafValues></_>
    <_>
      <internalNodes>
        0 -1 126184 1.8213504925370216e-02</internalNodes>
      <leafValues>
        -2.8290712833404541e-01 5.4680329561233521e-01</leafValues></_>
    <_>
      <internalNodes>
        0 -1 79134 -2.8623964637517929e-02</internalNodes>
      <leafValues>
        -2.5606402754783630e-01 5.9133303165435791e-01</leafValues></_>
    <_>
      <internalNodes>
        0 -1 75270 -2.0448314025998116e-03</internalNodes>
      <leafValues>
        -5.9859877824783325e-01 2.6430961489677429e-01</leafValues></_></weakClassifiers></stage16>
</opencv_storage>
