<?xml version="1.0"?>
<opencv_storage>
<stage8>
  <maxWeakCount>6</maxWeakCount>
  <stageThreshold>-9.7815227508544922e-01</stageThreshold>
  <weakClassifiers>
    <_>
      <internalNodes>
        0 -1 89807 1.2676628306508064e-02</internalNodes>
      <leafValues>
        -5.8536583185195923e-01 6.8750000000000000e-01</leafValues></_>
    <_>
      <internalNodes>
        0 -1 25786 2.0530117035377771e-04</internalNodes>
      <leafValues>
        2.0197679102420807e-01 -7.7090930938720703e-01</leafValues></_>
    <_>
      <internalNodes>
        0 -1 162200 -2.0504556596279144e-02</internalNodes>
      <leafValues>
        2.6989957690238953e-01 -6.7523366212844849e-01</leafValues></_>
    <_>
      <internalNodes>
        0 -1 22139 1.3703644275665283e-01</internalNodes>
      <leafValues>
        -4.1975334286689758e-01 4.6817448735237122e-01</leafValues></_>
    <_>
      <internalNodes>
        0 -1 162099 -9.1019042883999646e-05</internalNodes>
      <leafValues>
        -6.6843891143798828e-01 3.0265119671821594e-01</leafValues></_>
    <_>
      <internalNodes>
        0 -1 60360 -2.0309132523834705e-03</internalNodes>
      <leafValues>
        2.2532548010349274e-01 -9.5261150598526001e-01</leafValues></_></weakClassifiers></stage8>
</opencv_storage>
