<?xml version="1.0"?>
<opencv_storage>
<cascade>
  <stageType>BOOST</stageType>
  <featureType>HAAR</featureType>
  <height>24</height>
  <width>24</width>
  <stageParams>
    <boostType>GAB</boostType>
    <minHitRate>9.9500000476837158e-01</minHitRate>
    <maxFalseAlarm>5.0000000000000000e-01</maxFalseAlarm>
    <weightTrimRate>9.4999999999999996e-01</weightTrimRate>
    <maxDepth>1</maxDepth>
    <maxWeakCount>100</maxWeakCount></stageParams>
  <featureParams>
    <maxCatCount>0</maxCatCount>
    <featSize>1</featSize>
    <mode>BASIC</mode></featureParams>
  <stageNum>21</stageNum>
  <stages>
    <!-- stage 0 -->
    <_>
      <maxWeakCount>5</maxWeakCount>
      <stageThreshold>-1.1428911685943604e+00</stageThreshold>
      <weakClassifiers>
        <_>
          <internalNodes>
            0 -1 116 4.6075582504272461e-02</internalNodes>
          <leafValues>
            -8.1434601545333862e-01 7.3684209585189819e-01</leafValues></_>
        <_>
          <internalNodes>
            0 -1 25 -1.0126681067049503e-02</internalNodes>
          <leafValues>
            6.4498168230056763e-01 -5.6837582588195801e-01</leafValues></_>
        <_>
          <internalNodes>
            0 -1 69 -1.1641048640012741e-01</internalNodes>
          <leafValues>
            -9.9161815643310547e-01 2.6217406988143921e-01</leafValues></_>
        <_>
          <internalNodes>
            0 -1 52 -4.9583137035369873e-01</internalNodes>
          <leafValues>
            3.4411498904228210e-01 -7.0128548145294189e-01</leafValues></_>
        <_>
          <internalNodes>
            0 -1 26 2.0137652754783630e-02</internalNodes>
          <leafValues>
            -3.6645841598510742e-01 7.5940757989883423e-01</leafValues></_></weakClassifiers></_>
    <!-- stage 1 -->
    <_>
      <maxWeakCount>6</maxWeakCount>
      <stageThreshold>-1.3926227092742920e+00</stageThreshold>
      <weakClassifiers>
        <_>
          <internalNodes>
            0 -1 93 -5.4574348032474518e-02</internalNodes>
          <leafValues>
            2.8888890147209167e-01 -7.9443252086639404e-01</leafValues></_>
        <_>
          <internalNodes>
            0 -1 124 3.4074135124683380e-02</internalNodes>
          <leafValues>
            -4.3397134542465210e-01 5.6453877687454224e-01</leafValues></_>
        <_>
          <internalNodes>
            0 -1 108 -9.3522556126117706e-03</internalNodes>
          <leafValues>
            1.8073207139968872e-01 -7.9875981807708740e-01</leafValues></_>
        <_>
          <internalNodes>
            0 -1 21 -1.7323601990938187e-02</internalNodes>
          <leafValues>
            5.0362223386764526e-01 -3.5087254643440247e-01</leafValues></_>
        <_>
          <internalNodes>
            0 -1 40 8.2039171829819679e-03</internalNodes>
          <leafValues>
            -2.7325674891471863e-01 5.7901179790496826e-01</leafValues></_>
        <_>
          <internalNodes>
            0 -1 12 -4.8325292300432920e-04</internalNodes>
          <leafValues>
            4.0417549014091492e-01 -4.1785582900047302e-01</leafValues></_></weakClassifiers></_>
    <!-- stage 2 -->
    <_>
      <maxWeakCount>7</maxWeakCount>
      <stageThreshold>-1.1721525192260742e+00</stageThreshold>
      <weakClassifiers>
        <_>
          <internalNodes>
            0 -1 67 -1.4204211533069611e-01</internalNodes>
          <leafValues>
            4.8387095332145691e-01 -7.7546775341033936e-01</leafValues></_>
        <_>
          <internalNodes>
            0 -1 11 -9.5279797911643982e-02</internalNodes>
          <leafValues>
            6.0311466455459595e-01 -3.6793065071105957e-01</leafValues></_>
        <_>
          <internalNodes>
            0 -1 133 -1.3280992861837149e-03</internalNodes>
          <leafValues>
            -9.2871725559234619e-01 1.4367868006229401e-01</leafValues></_>
        <_>
          <internalNodes>
            0 -1 23 5.2647790871560574e-03</internalNodes>
          <leafValues>
            -2.4457918107509613e-01 5.1033121347427368e-01</leafValues></_>
        <_>
          <internalNodes>
            0 -1 79 -1.4076325297355652e-01</internalNodes>
          <leafValues>
            8.1237137317657471e-01 -1.6837224364280701e-01</leafValues></_>
        <_>
          <internalNodes>
            0 -1 65 4.7483742237091064e-02</internalNodes>
          <leafValues>
            -2.4650548398494720e-01 6.1866307258605957e-01</leafValues></_>
        <_>
          <internalNodes>
            0 -1 122 1.7049111425876617e-02</internalNodes>
          <leafValues>
            -2.6788625121116638e-01 5.7140165567398071e-01</leafValues></_></weakClassifiers></_>
    <!-- stage 3 -->
    <_>
      <maxWeakCount>7</maxWeakCount>
      <stageThreshold>-1.3227463960647583e+00</stageThreshold>
      <weakClassifiers>
        <_>
          <internalNodes>
            0 -1 60 -7.3403224349021912e-02</internalNodes>
          <leafValues>
            1.5555556118488312e-01 -7.8158456087112427e-01</leafValues></_>
        <_>
          <internalNodes>
            0 -1 59 7.0019310805946589e-04</internalNodes>
          <leafValues>
            -5.5815756320953369e-01 1.2697908282279968e-01</leafValues></_>
        <_>
          <internalNodes>
            0 -1 87 2.4498812854290009e-04</internalNodes>
          <leafValues>
            1.6378800570964813e-01 -7.5121146440505981e-01</leafValues></_>
        <_>
          <internalNodes>
            0 -1 103 -1.1028226464986801e-02</internalNodes>
          <leafValues>
            4.0937906503677368e-01 -3.3478876948356628e-01</leafValues></_>
        <_>
          <internalNodes>
            0 -1 106 1.1207796633243561e-03</internalNodes>
          <leafValues>
            -2.8655970096588135e-01 4.7194284200668335e-01</leafValues></_>
        <_>
          <internalNodes>
            0 -1 119 -3.3446133602410555e-04</internalNodes>
          <leafValues>
            4.5991066098213196e-01 -3.5656702518463135e-01</leafValues></_>
        <_>
          <internalNodes>
            0 -1 36 -2.2526483007823117e-05</internalNodes>
          <leafValues>
            3.2203391194343567e-01 -4.4168424606323242e-01</leafValues></_></weakClassifiers></_>
    <!-- stage 4 -->
    <_>
      <maxWeakCount>6</maxWeakCount>
      <stageThreshold>-1.3453987836837769e+00</stageThreshold>
      <weakClassifiers>
        <_>
          <internalNodes>
            0 -1 94 -1.0002955049276352e-01</internalNodes>
          <leafValues>
            -8.7531173229217529e-01 -6.3063062727451324e-02</leafValues></_>
        <_>
          <internalNodes>
            0 -1 38 -1.5479229390621185e-01</internalNodes>
          <leafValues>
            4.2667916417121887e-01 -4.8842537403106689e-01</leafValues></_>
        <_>
          <internalNodes>
            0 -1 118 -1.0110147297382355e-01</internalNodes>
          <leafValues>
            -7.1994644403457642e-01 2.7830278873443604e-01</leafValues></_>
        <_>
          <internalNodes>
            0 -1 4 9.7520567476749420e-02</internalNodes>
          <leafValues>
            -2.7396064996719360e-01 6.0201627016067505e-01</leafValues></_>
        <_>
          <internalNodes>
            0 -1 112 -5.2772567141801119e-04</internalNodes>
          <leafValues>
            4.2428821325302124e-01 -3.9090532064437866e-01</leafValues></_>
        <_>
          <internalNodes>
            0 -1 51 -3.6299459170550108e-03</internalNodes>
          <leafValues>
            5.8795714378356934e-01 -2.3860898613929749e-01</leafValues></_></weakClassifiers></_>
    <!-- stage 5 -->
    <_>
      <maxWeakCount>6</maxWeakCount>
      <stageThreshold>-1.1813558340072632e+00</stageThreshold>
      <weakClassifiers>
        <_>
          <internalNodes>
            0 -1 41 -7.4461758136749268e-02</internalNodes>
          <leafValues>
            -8.1465518474578857e-01 4.1666665673255920e-01</leafValues></_>
        <_>
          <internalNodes>
            0 -1 96 -2.8909775428473949e-03</internalNodes>
          <leafValues>
            7.3142433166503906e-01 -4.0703758597373962e-01</leafValues></_>
        <_>
          <internalNodes>
            0 -1 24 -1.1360448598861694e-01</internalNodes>
          <leafValues>
            -4.4256457686424255e-01 3.9395931363105774e-01</leafValues></_>
        <_>
          <internalNodes>
            0 -1 120 3.5747014917433262e-03</internalNodes>
          <leafValues>
            1.9689682126045227e-01 -7.9955834150314331e-01</leafValues></_>
        <_>
          <internalNodes>
            0 -1 139 -3.1366979237645864e-03</internalNodes>
          <leafValues>
            -1.6660310328006744e-01 8.9919328689575195e-01</leafValues></_>
        <_>
          <internalNodes>
            0 -1 129 1.2302840128540993e-02</internalNodes>
          <leafValues>
            -3.8391613960266113e-01 5.0022876262664795e-01</leafValues></_></weakClassifiers></_>
    <!-- stage 6 -->
    <_>
      <maxWeakCount>7</maxWeakCount>
      <stageThreshold>-1.1632031202316284e+00</stageThreshold>
      <weakClassifiers>
        <_>
          <internalNodes>
            0 -1 68 -1.2986668944358826e-01</internalNodes>
          <leafValues>
            -2.2727273404598236e-02 -8.3962261676788330e-01</leafValues></_>
        <_>
          <internalNodes>
            0 -1 91 -1.1245816946029663e-01</internalNodes>
          <leafValues>
            -4.5691859722137451e-01 6.1618661880493164e-01</leafValues></_>
        <_>
          <internalNodes>
            0 -1 32 5.9319291263818741e-02</internalNodes>
          <leafValues>
            -1.9149999320507050e-01 8.2790219783782959e-01</leafValues></_>
        <_>
          <internalNodes>
            0 -1 75 -4.2915001511573792e-02</internalNodes>
          <leafValues>
            4.6218740940093994e-01 -3.3351951837539673e-01</leafValues></_>
        <_>
          <internalNodes>
            0 -1 42 -2.8200744418427348e-04</internalNodes>
          <leafValues>
            5.1284384727478027e-01 -3.1871461868286133e-01</leafValues></_>
        <_>
          <internalNodes>
            0 -1 35 4.4297147542238235e-03</internalNodes>
          <leafValues>
            -4.0676343441009521e-01 3.6941599845886230e-01</leafValues></_>
        <_>
          <internalNodes>
            0 -1 22 1.0344579815864563e-02</internalNodes>
          <leafValues>
            -1.8805065751075745e-01 6.7631393671035767e-01</leafValues></_></weakClassifiers></_>
    <!-- stage 7 -->
    <_>
      <maxWeakCount>6</maxWeakCount>
      <stageThreshold>-1.5281237363815308e+00</stageThreshold>
      <weakClassifiers>
        <_>
          <internalNodes>
            0 -1 33 -1.9295200705528259e-01</internalNodes>
          <leafValues>
            4.6666666865348816e-01 -8.1156319379806519e-01</leafValues></_>
        <_>
          <internalNodes>
            0 -1 39 -4.3544102460145950e-02</internalNodes>
          <leafValues>
            3.4092748165130615e-01 -5.2178543806076050e-01</leafValues></_>
        <_>
          <internalNodes>
            0 -1 132 7.8376301098614931e-04</internalNodes>
          <leafValues>
            1.6499795019626617e-01 -8.3285957574844360e-01</leafValues></_>
        <_>
          <internalNodes>
            0 -1 89 -1.1040337849408388e-03</internalNodes>
          <leafValues>
            -8.2796233892440796e-01 1.2538224458694458e-01</leafValues></_>
        <_>
          <internalNodes>
            0 -1 85 -2.3215621709823608e-02</internalNodes>
          <leafValues>
            6.8207353353500366e-01 -2.2408187389373779e-01</leafValues></_>
        <_>
          <internalNodes>
            0 -1 90 -3.2534636557102203e-03</internalNodes>
          <leafValues>
            5.1462066173553467e-01 -2.6107344031333923e-01</leafValues></_></weakClassifiers></_>
    <!-- stage 8 -->
    <_>
      <maxWeakCount>7</maxWeakCount>
      <stageThreshold>-1.3604506254196167e+00</stageThreshold>
      <weakClassifiers>
        <_>
          <internalNodes>
            0 -1 17 -7.9157367348670959e-02</internalNodes>
          <leafValues>
            4.7619047760963440e-01 -8.0425530672073364e-01</leafValues></_>
        <_>
          <internalNodes>
            0 -1 13 -1.6301220655441284e-01</internalNodes>
          <leafValues>
            4.9777701497077942e-01 -4.5218759775161743e-01</leafValues></_>
        <_>
          <internalNodes>
            0 -1 45 4.3417021632194519e-02</internalNodes>
          <leafValues>
            -2.5516381859779358e-01 7.3194479942321777e-01</leafValues></_>
        <_>
          <internalNodes>
            0 -1 5 -5.1003694534301758e-02</internalNodes>
          <leafValues>
            3.9808881282806396e-01 -4.6792426705360413e-01</leafValues></_>
        <_>
          <internalNodes>
            0 -1 28 2.3836904764175415e-01</internalNodes>
          <leafValues>
            -2.5200927257537842e-01 6.2280106544494629e-01</leafValues></_>
        <_>
          <internalNodes>
            0 -1 50 -1.9526776671409607e-01</internalNodes>
          <leafValues>
            7.7636545896530151e-01 -2.0021085441112518e-01</leafValues></_>
        <_>
          <internalNodes>
            0 -1 0 2.0478568039834499e-03</internalNodes>
          <leafValues>
            2.0528738200664520e-01 -9.3060892820358276e-01</leafValues></_></weakClassifiers></_>
    <!-- stage 9 -->
    <_>
      <maxWeakCount>6</maxWeakCount>
      <stageThreshold>-1.3755702972412109e+00</stageThreshold>
      <weakClassifiers>
        <_>
          <internalNodes>
            0 -1 44 -5.8881148695945740e-02</internalNodes>
          <leafValues>
            -9.4736844301223755e-02 -8.3693045377731323e-01</leafValues></_>
        <_>
          <internalNodes>
            0 -1 27 -1.0216674953699112e-01</internalNodes>
          <leafValues>
            3.8983103632926941e-01 -4.4027298688888550e-01</leafValues></_>
        <_>
          <internalNodes>
            0 -1 34 -1.8997913599014282e-01</internalNodes>
          <leafValues>
            2.7908027172088623e-01 -5.7668632268905640e-01</leafValues></_>
        <_>
          <internalNodes>
            0 -1 136 1.6699470870662481e-04</internalNodes>
          <leafValues>
            2.0485520362854004e-01 -7.3744517564773560e-01</leafValues></_>
        <_>
          <internalNodes>
            0 -1 10 1.2545121833682060e-02</internalNodes>
          <leafValues>
            1.3239207863807678e-01 -9.7038060426712036e-01</leafValues></_>
        <_>
          <internalNodes>
            0 -1 37 1.6735853627324104e-02</internalNodes>
          <leafValues>
            1.4107222855091095e-01 -8.4071606397628784e-01</leafValues></_></weakClassifiers></_>
    <!-- stage 10 -->
    <_>
      <maxWeakCount>6</maxWeakCount>
      <stageThreshold>-1.2190443277359009e+00</stageThreshold>
      <weakClassifiers>
        <_>
          <internalNodes>
            0 -1 70 -1.0333415120840073e-03</internalNodes>
          <leafValues>
            -1.4285714924335480e-01 -7.6754385232925415e-01</leafValues></_>
        <_>
          <internalNodes>
            0 -1 73 8.8239525211974978e-05</internalNodes>
          <leafValues>
            -4.2696781456470490e-03 -7.1616894006729126e-01</leafValues></_>
        <_>
          <internalNodes>
            0 -1 127 6.0843699611723423e-03</internalNodes>
          <leafValues>
            9.3016460537910461e-02 -8.5484832525253296e-01</leafValues></_>
        <_>
          <internalNodes>
            0 -1 57 -8.5564237087965012e-04</internalNodes>
          <leafValues>
            6.0352063179016113e-01 -2.2124604880809784e-01</leafValues></_>
        <_>
          <internalNodes>
            0 -1 125 -2.8854450210928917e-03</internalNodes>
          <leafValues>
            -8.3917891979217529e-01 2.3401808738708496e-01</leafValues></_>
        <_>
          <internalNodes>
            0 -1 100 8.9841008186340332e-02</internalNodes>
          <leafValues>
            -3.0458897352218628e-01 4.1010367870330811e-01</leafValues></_></weakClassifiers></_>
    <!-- stage 11 -->
    <_>
      <maxWeakCount>6</maxWeakCount>
      <stageThreshold>-1.3568550348281860e+00</stageThreshold>
      <weakClassifiers>
        <_>
          <internalNodes>
            0 -1 62 6.6444268450140953e-03</internalNodes>
          <leafValues>
            -7.6923078298568726e-01 4.5454546809196472e-02</leafValues></_>
        <_>
          <internalNodes>
            0 -1 74 -2.2304223477840424e-01</internalNodes>
          <leafValues>
            -7.4610078334808350e-01 4.4623196125030518e-02</leafValues></_>
        <_>
          <internalNodes>
            0 -1 105 1.6860252071637660e-04</internalNodes>
          <leafValues>
            -3.7875857949256897e-01 4.9073499441146851e-01</leafValues></_>
        <_>
          <internalNodes>
            0 -1 66 1.1147104669362307e-03</internalNodes>
          <leafValues>
            1.8348403275012970e-01 -7.9462707042694092e-01</leafValues></_>
        <_>
          <internalNodes>
            0 -1 82 1.4826677215751261e-04</internalNodes>
          <leafValues>
            -3.9717558026313782e-01 3.5953724384307861e-01</leafValues></_>
        <_>
          <internalNodes>
            0 -1 2 3.2096804352477193e-04</internalNodes>
          <leafValues>
            2.2625175118446350e-01 -6.3308429718017578e-01</leafValues></_></weakClassifiers></_>
    <!-- stage 12 -->
    <_>
      <maxWeakCount>4</maxWeakCount>
      <stageThreshold>-1.1704270839691162e+00</stageThreshold>
      <weakClassifiers>
        <_>
          <internalNodes>
            0 -1 72 5.4059759713709354e-04</internalNodes>
          <leafValues>
            -7.9203540086746216e-01 0.</leafValues></_>
        <_>
          <internalNodes>
            0 -1 43 -4.0139693737728521e-05</internalNodes>
          <leafValues>
            3.1648448109626770e-01 -5.5061119794845581e-01</leafValues></_>
        <_>
          <internalNodes>
            0 -1 15 -7.6958991587162018e-02</internalNodes>
          <leafValues>
            4.3015825748443604e-01 -4.1270464658737183e-01</leafValues></_>
        <_>
          <internalNodes>
            0 -1 29 6.5062373876571655e-02</internalNodes>
          <leafValues>
            -2.5793868303298950e-01 7.7554208040237427e-01</leafValues></_></weakClassifiers></_>
    <!-- stage 13 -->
    <_>
      <maxWeakCount>8</maxWeakCount>
      <stageThreshold>-1.1791739463806152e+00</stageThreshold>
      <weakClassifiers>
        <_>
          <internalNodes>
            0 -1 102 -3.0677220784127712e-03</internalNodes>
          <leafValues>
            2.8000000119209290e-01 -7.4948662519454956e-01</leafValues></_>
        <_>
          <internalNodes>
            0 -1 111 7.0672761648893356e-04</internalNodes>
          <leafValues>
            -3.6194881796836853e-01 4.9716445803642273e-01</leafValues></_>
        <_>
          <internalNodes>
            0 -1 98 -4.0615769103169441e-04</internalNodes>
          <leafValues>
            5.7373636960983276e-01 -2.4425357580184937e-01</leafValues></_>
        <_>
          <internalNodes>
            0 -1 63 -2.2066102246753871e-04</internalNodes>
          <leafValues>
            4.4330206513404846e-01 -2.8700301051139832e-01</leafValues></_>
        <_>
          <internalNodes>
            0 -1 117 -1.3690851628780365e-03</internalNodes>
          <leafValues>
            -6.4783751964569092e-01 1.9356900453567505e-01</leafValues></_>
        <_>
          <internalNodes>
            0 -1 130 -1.2978042832401115e-05</internalNodes>
          <leafValues>
            4.1755044460296631e-01 -3.1913015246391296e-01</leafValues></_>
        <_>
          <internalNodes>
            0 -1 88 -7.1624212432652712e-04</internalNodes>
          <leafValues>
            -6.9365525245666504e-01 2.0765037834644318e-01</leafValues></_>
        <_>
          <internalNodes>
            0 -1 47 -1.7863101093098521e-03</internalNodes>
          <leafValues>
            4.8733150959014893e-01 -3.1305930018424988e-01</leafValues></_></weakClassifiers></_>
    <!-- stage 14 -->
    <_>
      <maxWeakCount>8</maxWeakCount>
      <stageThreshold>-1.2655471563339233e+00</stageThreshold>
      <weakClassifiers>
        <_>
          <internalNodes>
            0 -1 123 5.7573117315769196e-02</internalNodes>
          <leafValues>
            -7.5157892704010010e-01 -2.7027027681469917e-02</leafValues></_>
        <_>
          <internalNodes>
            0 -1 46 6.0055742505937815e-04</internalNodes>
          <leafValues>
            -3.7031501531600952e-01 3.6614933609962463e-01</leafValues></_>
        <_>
          <internalNodes>
            0 -1 30 -2.0682793110609055e-02</internalNodes>
          <leafValues>
            -6.2727421522140503e-01 1.7324197292327881e-01</leafValues></_>
        <_>
          <internalNodes>
            0 -1 8 1.5434987843036652e-02</internalNodes>
          <leafValues>
            1.4529064297676086e-01 -7.3064619302749634e-01</leafValues></_>
        <_>
          <internalNodes>
            0 -1 113 6.0778285842388868e-05</internalNodes>
          <leafValues>
            -4.1555917263031006e-01 2.9247277975082397e-01</leafValues></_>
        <_>
          <internalNodes>
            0 -1 131 -7.1195431519299746e-04</internalNodes>
          <leafValues>
            -6.9933962821960449e-01 1.5261529386043549e-01</leafValues></_>
        <_>
          <internalNodes>
            0 -1 110 -1.1407667770981789e-02</internalNodes>
          <leafValues>
            6.3135772943496704e-01 -1.7975796759128571e-01</leafValues></_>
        <_>
          <internalNodes>
            0 -1 137 -2.8852447867393494e-03</internalNodes>
          <leafValues>
            -6.0923308134078979e-01 2.1247285604476929e-01</leafValues></_></weakClassifiers></_>
    <!-- stage 15 -->
    <_>
      <maxWeakCount>5</maxWeakCount>
      <stageThreshold>-1.0925754308700562e+00</stageThreshold>
      <weakClassifiers>
        <_>
          <internalNodes>
            0 -1 77 -6.5977120539173484e-04</internalNodes>
          <leafValues>
            -1.8181818723678589e-01 -7.7578473091125488e-01</leafValues></_>
        <_>
          <internalNodes>
            0 -1 109 -7.8182318247854710e-04</internalNodes>
          <leafValues>
            -8.4089976549148560e-01 -3.7162341177463531e-02</leafValues></_>
        <_>
          <internalNodes>
            0 -1 101 3.8040394429117441e-04</internalNodes>
          <leafValues>
            -2.8160890936851501e-01 4.3859258294105530e-01</leafValues></_>
        <_>
          <internalNodes>
            0 -1 31 3.2288692891597748e-03</internalNodes>
          <leafValues>
            1.8493543565273285e-01 -8.3204162120819092e-01</leafValues></_>
        <_>
          <internalNodes>
            0 -1 83 4.6771351480856538e-04</internalNodes>
          <leafValues>
            1.1382068693637848e-01 -7.2401750087738037e-01</leafValues></_></weakClassifiers></_>
    <!-- stage 16 -->
    <_>
      <maxWeakCount>7</maxWeakCount>
      <stageThreshold>-1.8797096014022827e+00</stageThreshold>
      <weakClassifiers>
        <_>
          <internalNodes>
            0 -1 81 -8.3896204829216003e-02</internalNodes>
          <leafValues>
            6.5217393636703491e-01 -7.6278120279312134e-01</leafValues></_>
        <_>
          <internalNodes>
            0 -1 86 7.7913200948387384e-04</internalNodes>
          <leafValues>
            -3.8563409447669983e-01 5.9061604738235474e-01</leafValues></_>
        <_>
          <internalNodes>
            0 -1 54 -4.1118444642052054e-04</internalNodes>
          <leafValues>
            5.6866180896759033e-01 -2.8609836101531982e-01</leafValues></_>
        <_>
          <internalNodes>
            0 -1 18 -3.9179478771984577e-03</internalNodes>
          <leafValues>
            4.9325054883956909e-01 -3.2510393857955933e-01</leafValues></_>
        <_>
          <internalNodes>
            0 -1 126 -1.3354567636270076e-04</internalNodes>
          <leafValues>
            6.0096234083175659e-01 -3.0922108888626099e-01</leafValues></_>
        <_>
          <internalNodes>
            0 -1 58 -1.2792070629075170e-04</internalNodes>
          <leafValues>
            4.3129199743270874e-01 -3.6091220378875732e-01</leafValues></_>
        <_>
          <internalNodes>
            0 -1 7 -8.5703213699162006e-04</internalNodes>
          <leafValues>
            3.9093971252441406e-01 -3.6014211177825928e-01</leafValues></_></weakClassifiers></_>
    <!-- stage 17 -->
    <_>
      <maxWeakCount>8</maxWeakCount>
      <stageThreshold>-1.5775064229965210e+00</stageThreshold>
      <weakClassifiers>
        <_>
          <internalNodes>
            0 -1 134 -4.3616136536002159e-03</internalNodes>
          <leafValues>
            5.0000000000000000e-01 -7.3790323734283447e-01</leafValues></_>
        <_>
          <internalNodes>
            0 -1 20 -5.3433007560670376e-03</internalNodes>
          <leafValues>
            5.3140789270401001e-01 -3.4269389510154724e-01</leafValues></_>
        <_>
          <internalNodes>
            0 -1 1 -1.3644066639244556e-02</internalNodes>
          <leafValues>
            -6.7499232292175293e-01 1.7931370437145233e-01</leafValues></_>
        <_>
          <internalNodes>
            0 -1 92 -2.2053514840081334e-04</internalNodes>
          <leafValues>
            -6.8583732843399048e-01 1.5410709381103516e-01</leafValues></_>
        <_>
          <internalNodes>
            0 -1 56 -2.3689845111221075e-03</internalNodes>
          <leafValues>
            -4.1679441928863525e-01 2.8103420138359070e-01</leafValues></_>
        <_>
          <internalNodes>
            0 -1 95 -7.0679036434739828e-04</internalNodes>
          <leafValues>
            5.6607836484909058e-01 -2.1439866721630096e-01</leafValues></_>
        <_>
          <internalNodes>
            0 -1 16 8.1292884424328804e-03</internalNodes>
          <leafValues>
            2.1008035540580750e-01 -6.5384215116500854e-01</leafValues></_>
        <_>
          <internalNodes>
            0 -1 49 2.3956787772476673e-03</internalNodes>
          <leafValues>
            -3.3538827300071716e-01 4.1705185174942017e-01</leafValues></_></weakClassifiers></_>
    <!-- stage 18 -->
    <_>
      <maxWeakCount>10</maxWeakCount>
      <stageThreshold>-1.5634531974792480e+00</stageThreshold>
      <weakClassifiers>
        <_>
          <internalNodes>
            0 -1 80 -1.2071796506643295e-01</internalNodes>
          <leafValues>
            7.1428573131561279e-01 -7.3895579576492310e-01</leafValues></_>
        <_>
          <internalNodes>
            0 -1 53 -1.1007245630025864e-03</internalNodes>
          <leafValues>
            2.6986715197563171e-01 -4.7825527191162109e-01</leafValues></_>
        <_>
          <internalNodes>
            0 -1 6 -9.7293838858604431e-02</internalNodes>
          <leafValues>
            4.3723127245903015e-01 -2.9974129796028137e-01</leafValues></_>
        <_>
          <internalNodes>
            0 -1 61 2.0976061932742596e-04</internalNodes>
          <leafValues>
            -3.6218011379241943e-01 3.7970298528671265e-01</leafValues></_>
        <_>
          <internalNodes>
            0 -1 78 2.6051003485918045e-02</internalNodes>
          <leafValues>
            -3.3222559094429016e-01 3.6546617746353149e-01</leafValues></_>
        <_>
          <internalNodes>
            0 -1 55 -6.8304466549307108e-04</internalNodes>
          <leafValues>
            -6.4187175035476685e-01 2.3322875797748566e-01</leafValues></_>
        <_>
          <internalNodes>
            0 -1 114 -2.6551513001322746e-03</internalNodes>
          <leafValues>
            6.7380827665328979e-01 -2.3088766634464264e-01</leafValues></_>
        <_>
          <internalNodes>
            0 -1 48 -2.6226539164781570e-02</internalNodes>
          <leafValues>
            -9.2405992746353149e-01 1.7409466207027435e-01</leafValues></_>
        <_>
          <internalNodes>
            0 -1 104 -7.0347427390515804e-04</internalNodes>
          <leafValues>
            3.7979549169540405e-01 -3.7338295578956604e-01</leafValues></_>
        <_>
          <internalNodes>
            0 -1 97 -1.0438167955726385e-03</internalNodes>
          <leafValues>
            -8.9030760526657104e-01 1.4716027677059174e-01</leafValues></_></weakClassifiers></_>
    <!-- stage 19 -->
    <_>
      <maxWeakCount>8</maxWeakCount>
      <stageThreshold>-1.4101364612579346e+00</stageThreshold>
      <weakClassifiers>
        <_>
          <internalNodes>
            0 -1 64 4.6453788876533508e-02</internalNodes>
          <leafValues>
            -7.3947894573211670e-01 8.4615385532379150e-01</leafValues></_>
        <_>
          <internalNodes>
            0 -1 84 -5.1882245315937325e-05</internalNodes>
          <leafValues>
            1.7653849720954895e-01 -5.0862288475036621e-01</leafValues></_>
        <_>
          <internalNodes>
            0 -1 76 -9.7818691283464432e-03</internalNodes>
          <leafValues>
            -3.2907855510711670e-01 4.2964109778404236e-01</leafValues></_>
        <_>
          <internalNodes>
            0 -1 138 2.1136338182259351e-04</internalNodes>
          <leafValues>
            2.0843641459941864e-01 -6.3394451141357422e-01</leafValues></_>
        <_>
          <internalNodes>
            0 -1 107 -3.3792664180509746e-04</internalNodes>
          <leafValues>
            4.6357634663581848e-01 -3.1445771455764771e-01</leafValues></_>
        <_>
          <internalNodes>
            0 -1 19 -5.0461553037166595e-03</internalNodes>
          <leafValues>
            -7.1059000492095947e-01 1.9641883671283722e-01</leafValues></_>
        <_>
          <internalNodes>
            0 -1 99 -5.8040104340761900e-04</internalNodes>
          <leafValues>
            5.5165183544158936e-01 -2.4600331485271454e-01</leafValues></_>
        <_>
          <internalNodes>
            0 -1 9 -5.2170939743518829e-02</internalNodes>
          <leafValues>
            7.4991863965988159e-01 -1.6949674487113953e-01</leafValues></_></weakClassifiers></_>
    <!-- stage 20 -->
    <_>
      <maxWeakCount>8</maxWeakCount>
      <stageThreshold>-1.1133242845535278e+00</stageThreshold>
      <weakClassifiers>
        <_>
          <internalNodes>
            0 -1 128 1.6982559114694595e-02</internalNodes>
          <leafValues>
            -7.5102043151855469e-01 4.5454546809196472e-01</leafValues></_>
        <_>
          <internalNodes>
            0 -1 14 1.2290382757782936e-02</internalNodes>
          <leafValues>
            -3.7013426423072815e-01 5.3831064701080322e-01</leafValues></_>
        <_>
          <internalNodes>
            0 -1 115 7.4971269350498915e-04</internalNodes>
          <leafValues>
            -2.8766754269599915e-01 4.2771485447883606e-01</leafValues></_>
        <_>
          <internalNodes>
            0 -1 0 -8.5634575225412846e-04</internalNodes>
          <leafValues>
            -5.1833814382553101e-01 2.4698929488658905e-01</leafValues></_>
        <_>
          <internalNodes>
            0 -1 3 -2.8083977667847648e-05</internalNodes>
          <leafValues>
            3.2935500144958496e-01 -4.1424947977066040e-01</leafValues></_>
        <_>
          <internalNodes>
            0 -1 121 -4.8695821315050125e-03</internalNodes>
          <leafValues>
            5.3090834617614746e-01 -2.3789720237255096e-01</leafValues></_>
        <_>
          <internalNodes>
            0 -1 71 3.7602175143547356e-04</internalNodes>
          <leafValues>
            -2.3980370163917542e-01 5.1587098836898804e-01</leafValues></_>
        <_>
          <internalNodes>
            0 -1 135 -4.9772753845900297e-04</internalNodes>
          <leafValues>
            -7.2264587879180908e-01 2.2507666051387787e-01</leafValues></_></weakClassifiers></_></stages>
  <features>
    <_>
      <rects>
        <_>
          0 0 6 2 -1.</_>
        <_>
          0 0 3 1 2.</_>
        <_>
          3 1 3 1 2.</_></rects>
      <tilted>0</tilted></_>
    <_>
      <rects>
        <_>
          0 0 14 2 -1.</_>
        <_>
          7 0 7 2 2.</_></rects>
      <tilted>0</tilted></_>
    <_>
      <rects>
        <_>
          0 1 2 3 -1.</_>
        <_>
          1 1 1 3 2.</_></rects>
      <tilted>0</tilted></_>
    <_>
      <rects>
        <_>
          0 1 6 2 -1.</_>
        <_>
          0 1 3 1 2.</_>
        <_>
          3 2 3 1 2.</_></rects>
      <tilted>0</tilted></_>
    <_>
      <rects>
        <_>
          0 2 12 22 -1.</_>
        <_>
          0 2 6 11 2.</_>
        <_>
          6 13 6 11 2.</_></rects>
      <tilted>0</tilted></_>
    <_>
      <rects>
        <_>
          0 5 15 2 -1.</_>
        <_>
          5 5 5 2 2.</_></rects>
      <tilted>0</tilted></_>
    <_>
      <rects>
        <_>
          0 5 16 18 -1.</_>
        <_>
          8 5 8 18 2.</_></rects>
      <tilted>0</tilted></_>
    <_>
      <rects>
        <_>
          0 5 22 2 -1.</_>
        <_>
          0 5 11 1 2.</_>
        <_>
          11 6 11 1 2.</_></rects>
      <tilted>0</tilted></_>
    <_>
      <rects>
        <_>
          0 7 24 1 -1.</_>
        <_>
          12 7 12 1 2.</_></rects>
      <tilted>0</tilted></_>
    <_>
      <rects>
        <_>
          0 8 6 14 -1.</_>
        <_>
          3 8 3 14 2.</_></rects>
      <tilted>0</tilted></_>
    <_>
      <rects>
        <_>
          0 8 6 4 -1.</_>
        <_>
          0 10 6 2 2.</_></rects>
      <tilted>0</tilted></_>
    <_>
      <rects>
        <_>
          0 12 10 12 -1.</_>
        <_>
          5 12 5 12 2.</_></rects>
      <tilted>0</tilted></_>
    <_>
      <rects>
        <_>
          0 20 7 2 -1.</_>
        <_>
          0 21 7 1 2.</_></rects>
      <tilted>0</tilted></_>
    <_>
      <rects>
        <_>
          1 0 13 14 -1.</_>
        <_>
          1 7 13 7 2.</_></rects>
      <tilted>0</tilted></_>
    <_>
      <rects>
        <_>
          1 0 21 4 -1.</_>
        <_>
          1 2 21 2 2.</_></rects>
      <tilted>0</tilted></_>
    <_>
      <rects>
        <_>
          1 0 23 8 -1.</_>
        <_>
          1 4 23 4 2.</_></rects>
      <tilted>0</tilted></_>
    <_>
      <rects>
        <_>
          1 1 2 8 -1.</_>
        <_>
          1 5 2 4 2.</_></rects>
      <tilted>0</tilted></_>
    <_>
      <rects>
        <_>
          1 1 10 3 -1.</_>
        <_>
          1 2 10 1 2.</_></rects>
      <tilted>0</tilted></_>
    <_>
      <rects>
        <_>
          1 2 18 2 -1.</_>
        <_>
          1 3 18 1 2.</_></rects>
      <tilted>0</tilted></_>
    <_>
      <rects>
        <_>
          1 3 3 4 -1.</_>
        <_>
          1 5 3 2 2.</_></rects>
      <tilted>0</tilted></_>
    <_>
      <rects>
        <_>
          1 4 2 5 -1.</_>
        <_>
          2 4 1 5 2.</_></rects>
      <tilted>0</tilted></_>
    <_>
      <rects>
        <_>
          1 4 10 5 -1.</_>
        <_>
          6 4 5 5 2.</_></rects>
      <tilted>0</tilted></_>
    <_>
      <rects>
        <_>
          1 4 14 1 -1.</_>
        <_>
          8 4 7 1 2.</_></rects>
      <tilted>0</tilted></_>
    <_>
      <rects>
        <_>
          1 7 2 16 -1.</_>
        <_>
          1 7 1 8 2.</_>
        <_>
          2 15 1 8 2.</_></rects>
      <tilted>0</tilted></_>
    <_>
      <rects>
        <_>
          1 7 4 12 -1.</_>
        <_>
          1 11 4 4 2.</_></rects>
      <tilted>0</tilted></_>
    <_>
      <rects>
        <_>
          1 8 4 7 -1.</_>
        <_>
          3 8 2 7 2.</_></rects>
      <tilted>0</tilted></_>
    <_>
      <rects>
        <_>
          1 18 10 3 -1.</_>
        <_>
          6 18 5 3 2.</_></rects>
      <tilted>0</tilted></_>
    <_>
      <rects>
        <_>
          2 0 16 8 -1.</_>
        <_>
          2 4 16 4 2.</_></rects>
      <tilted>0</tilted></_>
    <_>
      <rects>
        <_>
          2 0 18 24 -1.</_>
        <_>
          2 12 18 12 2.</_></rects>
      <tilted>0</tilted></_>
    <_>
      <rects>
        <_>
          2 0 19 10 -1.</_>
        <_>
          2 5 19 5 2.</_></rects>
      <tilted>0</tilted></_>
    <_>
      <rects>
        <_>
          2 1 22 6 -1.</_>
        <_>
          2 1 11 3 2.</_>
        <_>
          13 4 11 3 2.</_></rects>
      <tilted>0</tilted></_>
    <_>
      <rects>
        <_>
          2 19 4 4 -1.</_>
        <_>
          2 19 2 2 2.</_>
        <_>
          4 21 2 2 2.</_></rects>
      <tilted>0</tilted></_>
    <_>
      <rects>
        <_>
          3 0 12 8 -1.</_>
        <_>
          3 4 12 4 2.</_></rects>
      <tilted>0</tilted></_>
    <_>
      <rects>
        <_>
          3 0 13 14 -1.</_>
        <_>
          3 7 13 7 2.</_></rects>
      <tilted>0</tilted></_>
    <_>
      <rects>
        <_>
          3 5 7 18 -1.</_>
        <_>
          3 11 7 6 2.</_></rects>
      <tilted>0</tilted></_>
    <_>
      <rects>
        <_>
          3 7 6 12 -1.</_>
        <_>
          3 7 3 6 2.</_>
        <_>
          6 13 3 6 2.</_></rects>
      <tilted>0</tilted></_>
    <_>
      <rects>
        <_>
          3 15 2 1 -1.</_>
        <_>
          4 15 1 1 2.</_></rects>
      <tilted>0</tilted></_>
    <_>
      <rects>
        <_>
          3 16 18 4 -1.</_>
        <_>
          3 16 9 2 2.</_>
        <_>
          12 18 9 2 2.</_></rects>
      <tilted>0</tilted></_>
    <_>
      <rects>
        <_>
          4 0 15 10 -1.</_>
        <_>
          4 5 15 5 2.</_></rects>
      <tilted>0</tilted></_>
    <_>
      <rects>
        <_>
          4 2 18 1 -1.</_>
        <_>
          10 2 6 1 2.</_></rects>
      <tilted>0</tilted></_>
    <_>
      <rects>
        <_>
          4 4 6 10 -1.</_>
        <_>
          7 4 3 10 2.</_></rects>
      <tilted>0</tilted></_>
    <_>
      <rects>
        <_>
          4 11 17 3 -1.</_>
        <_>
          4 12 17 1 2.</_></rects>
      <tilted>0</tilted></_>
    <_>
      <rects>
        <_>
          4 13 2 2 -1.</_>
        <_>
          4 13 1 1 2.</_>
        <_>
          5 14 1 1 2.</_></rects>
      <tilted>0</tilted></_>
    <_>
      <rects>
        <_>
          4 15 2 2 -1.</_>
        <_>
          4 15 1 1 2.</_>
        <_>
          5 16 1 1 2.</_></rects>
      <tilted>0</tilted></_>
    <_>
      <rects>
        <_>
          5 0 12 2 -1.</_>
        <_>
          9 0 4 2 2.</_></rects>
      <tilted>0</tilted></_>
    <_>
      <rects>
        <_>
          5 2 12 8 -1.</_>
        <_>
          5 6 12 4 2.</_></rects>
      <tilted>0</tilted></_>
    <_>
      <rects>
        <_>
          5 6 2 2 -1.</_>
        <_>
          5 6 1 1 2.</_>
        <_>
          6 7 1 1 2.</_></rects>
      <tilted>0</tilted></_>
    <_>
      <rects>
        <_>
          5 6 2 6 -1.</_>
        <_>
          5 6 1 3 2.</_>
        <_>
          6 9 1 3 2.</_></rects>
      <tilted>0</tilted></_>
    <_>
      <rects>
        <_>
          5 15 17 4 -1.</_>
        <_>
          5 17 17 2 2.</_></rects>
      <tilted>0</tilted></_>
    <_>
      <rects>
        <_>
          5 19 11 2 -1.</_>
        <_>
          5 20 11 1 2.</_></rects>
      <tilted>0</tilted></_>
    <_>
      <rects>
        <_>
          6 0 12 20 -1.</_>
        <_>
          6 10 12 10 2.</_></rects>
      <tilted>0</tilted></_>
    <_>
      <rects>
        <_>
          6 2 2 20 -1.</_>
        <_>
          6 2 1 10 2.</_>
        <_>
          7 12 1 10 2.</_></rects>
      <tilted>0</tilted></_>
    <_>
      <rects>
        <_>
          6 2 15 22 -1.</_>
        <_>
          11 2 5 22 2.</_></rects>
      <tilted>0</tilted></_>
    <_>
      <rects>
        <_>
          6 6 6 2 -1.</_>
        <_>
          6 6 3 1 2.</_>
        <_>
          9 7 3 1 2.</_></rects>
      <tilted>0</tilted></_>
    <_>
      <rects>
        <_>
          6 7 2 2 -1.</_>
        <_>
          6 7 1 1 2.</_>
        <_>
          7 8 1 1 2.</_></rects>
      <tilted>0</tilted></_>
    <_>
      <rects>
        <_>
          6 10 2 1 -1.</_>
        <_>
          7 10 1 1 2.</_></rects>
      <tilted>0</tilted></_>
    <_>
      <rects>
        <_>
          6 13 4 10 -1.</_>
        <_>
          6 13 2 5 2.</_>
        <_>
          8 18 2 5 2.</_></rects>
      <tilted>0</tilted></_>
    <_>
      <rects>
        <_>
          6 14 2 2 -1.</_>
        <_>
          6 14 1 1 2.</_>
        <_>
          7 15 1 1 2.</_></rects>
      <tilted>0</tilted></_>
    <_>
      <rects>
        <_>
          6 19 2 2 -1.</_>
        <_>
          6 19 1 1 2.</_>
        <_>
          7 20 1 1 2.</_></rects>
      <tilted>0</tilted></_>
    <_>
      <rects>
        <_>
          6 20 8 2 -1.</_>
        <_>
          6 20 4 1 2.</_>
        <_>
          10 21 4 1 2.</_></rects>
      <tilted>0</tilted></_>
    <_>
      <rects>
        <_>
          7 3 10 6 -1.</_>
        <_>
          7 6 10 3 2.</_></rects>
      <tilted>0</tilted></_>
    <_>
      <rects>
        <_>
          7 8 8 2 -1.</_>
        <_>
          7 9 8 1 2.</_></rects>
      <tilted>0</tilted></_>
    <_>
      <rects>
        <_>
          7 13 4 4 -1.</_>
        <_>
          7 13 2 2 2.</_>
        <_>
          9 15 2 2 2.</_></rects>
      <tilted>0</tilted></_>
    <_>
      <rects>
        <_>
          7 15 2 2 -1.</_>
        <_>
          7 15 1 1 2.</_>
        <_>
          8 16 1 1 2.</_></rects>
      <tilted>0</tilted></_>
    <_>
      <rects>
        <_>
          7 16 8 6 -1.</_>
        <_>
          7 19 8 3 2.</_></rects>
      <tilted>0</tilted></_>
    <_>
      <rects>
        <_>
          7 16 16 7 -1.</_>
        <_>
          15 16 8 7 2.</_></rects>
      <tilted>0</tilted></_>
    <_>
      <rects>
        <_>
          8 0 4 1 -1.</_>
        <_>
          10 0 2 1 2.</_></rects>
      <tilted>0</tilted></_>
    <_>
      <rects>
        <_>
          8 0 9 10 -1.</_>
        <_>
          8 5 9 5 2.</_></rects>
      <tilted>0</tilted></_>
    <_>
      <rects>
        <_>
          8 0 12 14 -1.</_>
        <_>
          8 7 12 7 2.</_></rects>
      <tilted>0</tilted></_>
    <_>
      <rects>
        <_>
          8 11 9 4 -1.</_>
        <_>
          11 11 3 4 2.</_></rects>
      <tilted>0</tilted></_>
    <_>
      <rects>
        <_>
          8 13 2 2 -1.</_>
        <_>
          8 13 1 1 2.</_>
        <_>
          9 14 1 1 2.</_></rects>
      <tilted>0</tilted></_>
    <_>
      <rects>
        <_>
          8 19 2 1 -1.</_>
        <_>
          9 19 1 1 2.</_></rects>
      <tilted>0</tilted></_>
    <_>
      <rects>
        <_>
          8 21 1 2 -1.</_>
        <_>
          8 22 1 1 2.</_></rects>
      <tilted>0</tilted></_>
    <_>
      <rects>
        <_>
          9 0 2 2 -1.</_>
        <_>
          9 0 1 1 2.</_>
        <_>
          10 1 1 1 2.</_></rects>
      <tilted>0</tilted></_>
    <_>
      <rects>
        <_>
          9 0 9 9 -1.</_>
        <_>
          12 0 3 9 2.</_></rects>
      <tilted>0</tilted></_>
    <_>
      <rects>
        <_>
          9 0 13 8 -1.</_>
        <_>
          9 4 13 4 2.</_></rects>
      <tilted>0</tilted></_>
    <_>
      <rects>
        <_>
          9 14 6 1 -1.</_>
        <_>
          11 14 2 1 2.</_></rects>
      <tilted>0</tilted></_>
    <_>
      <rects>
        <_>
          9 15 2 2 -1.</_>
        <_>
          9 15 1 1 2.</_>
        <_>
          10 16 1 1 2.</_></rects>
      <tilted>0</tilted></_>
    <_>
      <rects>
        <_>
          10 0 12 14 -1.</_>
        <_>
          10 0 6 7 2.</_>
        <_>
          16 7 6 7 2.</_></rects>
      <tilted>0</tilted></_>
    <_>
      <rects>
        <_>
          10 0 12 22 -1.</_>
        <_>
          10 0 6 11 2.</_>
        <_>
          16 11 6 11 2.</_></rects>
      <tilted>0</tilted></_>
    <_>
      <rects>
        <_>
          10 0 14 14 -1.</_>
        <_>
          10 0 7 7 2.</_>
        <_>
          17 7 7 7 2.</_></rects>
      <tilted>0</tilted></_>
    <_>
      <rects>
        <_>
          10 1 6 8 -1.</_>
        <_>
          10 5 6 4 2.</_></rects>
      <tilted>0</tilted></_>
    <_>
      <rects>
        <_>
          10 2 2 8 -1.</_>
        <_>
          11 2 1 8 2.</_></rects>
      <tilted>0</tilted></_>
    <_>
      <rects>
        <_>
          10 4 2 1 -1.</_>
        <_>
          11 4 1 1 2.</_></rects>
      <tilted>0</tilted></_>
    <_>
      <rects>
        <_>
          10 10 4 2 -1.</_>
        <_>
          10 10 2 1 2.</_>
        <_>
          12 11 2 1 2.</_></rects>
      <tilted>0</tilted></_>
    <_>
      <rects>
        <_>
          10 16 12 6 -1.</_>
        <_>
          10 19 12 3 2.</_></rects>
      <tilted>0</tilted></_>
    <_>
      <rects>
        <_>
          10 22 1 2 -1.</_>
        <_>
          10 23 1 1 2.</_></rects>
      <tilted>0</tilted></_>
    <_>
      <rects>
        <_>
          11 0 2 1 -1.</_>
        <_>
          12 0 1 1 2.</_></rects>
      <tilted>0</tilted></_>
    <_>
      <rects>
        <_>
          11 0 4 1 -1.</_>
        <_>
          13 0 2 1 2.</_></rects>
      <tilted>0</tilted></_>
    <_>
      <rects>
        <_>
          11 2 2 4 -1.</_>
        <_>
          11 2 1 2 2.</_>
        <_>
          12 4 1 2 2.</_></rects>
      <tilted>0</tilted></_>
    <_>
      <rects>
        <_>
          11 14 12 2 -1.</_>
        <_>
          11 15 12 1 2.</_></rects>
      <tilted>0</tilted></_>
    <_>
      <rects>
        <_>
          11 17 13 6 -1.</_>
        <_>
          11 19 13 2 2.</_></rects>
      <tilted>0</tilted></_>
    <_>
      <rects>
        <_>
          12 2 2 2 -1.</_>
        <_>
          12 2 1 1 2.</_>
        <_>
          13 3 1 1 2.</_></rects>
      <tilted>0</tilted></_>
    <_>
      <rects>
        <_>
          12 2 5 8 -1.</_>
        <_>
          12 6 5 4 2.</_></rects>
      <tilted>0</tilted></_>
    <_>
      <rects>
        <_>
          12 9 9 6 -1.</_>
        <_>
          12 11 9 2 2.</_></rects>
      <tilted>0</tilted></_>
    <_>
      <rects>
        <_>
          12 13 2 1 -1.</_>
        <_>
          13 13 1 1 2.</_></rects>
      <tilted>0</tilted></_>
    <_>
      <rects>
        <_>
          12 14 2 4 -1.</_>
        <_>
          12 14 1 2 2.</_>
        <_>
          13 16 1 2 2.</_></rects>
      <tilted>0</tilted></_>
    <_>
      <rects>
        <_>
          12 22 2 2 -1.</_>
        <_>
          12 22 1 1 2.</_>
        <_>
          13 23 1 1 2.</_></rects>
      <tilted>0</tilted></_>
    <_>
      <rects>
        <_>
          13 4 2 2 -1.</_>
        <_>
          13 4 1 1 2.</_>
        <_>
          14 5 1 1 2.</_></rects>
      <tilted>0</tilted></_>
    <_>
      <rects>
        <_>
          13 7 2 1 -1.</_>
        <_>
          14 7 1 1 2.</_></rects>
      <tilted>0</tilted></_>
    <_>
      <rects>
        <_>
          14 5 10 19 -1.</_>
        <_>
          19 5 5 19 2.</_></rects>
      <tilted>0</tilted></_>
    <_>
      <rects>
        <_>
          14 6 2 2 -1.</_>
        <_>
          14 6 1 1 2.</_>
        <_>
          15 7 1 1 2.</_></rects>
      <tilted>0</tilted></_>
    <_>
      <rects>
        <_>
          14 8 2 4 -1.</_>
        <_>
          14 8 1 2 2.</_>
        <_>
          15 10 1 2 2.</_></rects>
      <tilted>0</tilted></_>
    <_>
      <rects>
        <_>
          14 8 6 14 -1.</_>
        <_>
          14 8 3 7 2.</_>
        <_>
          17 15 3 7 2.</_></rects>
      <tilted>0</tilted></_>
    <_>
      <rects>
        <_>
          14 9 2 8 -1.</_>
        <_>
          15 9 1 8 2.</_></rects>
      <tilted>0</tilted></_>
    <_>
      <rects>
        <_>
          14 13 2 2 -1.</_>
        <_>
          14 13 1 1 2.</_>
        <_>
          15 14 1 1 2.</_></rects>
      <tilted>0</tilted></_>
    <_>
      <rects>
        <_>
          14 16 4 2 -1.</_>
        <_>
          14 16 2 1 2.</_>
        <_>
          16 17 2 1 2.</_></rects>
      <tilted>0</tilted></_>
    <_>
      <rects>
        <_>
          14 18 1 2 -1.</_>
        <_>
          14 19 1 1 2.</_></rects>
      <tilted>0</tilted></_>
    <_>
      <rects>
        <_>
          14 21 3 3 -1.</_>
        <_>
          14 22 3 1 2.</_></rects>
      <tilted>0</tilted></_>
    <_>
      <rects>
        <_>
          15 0 2 2 -1.</_>
        <_>
          16 0 1 2 2.</_></rects>
      <tilted>0</tilted></_>
    <_>
      <rects>
        <_>
          15 2 6 6 -1.</_>
        <_>
          15 2 3 3 2.</_>
        <_>
          18 5 3 3 2.</_></rects>
      <tilted>0</tilted></_>
    <_>
      <rects>
        <_>
          15 13 2 2 -1.</_>
        <_>
          15 13 1 1 2.</_>
        <_>
          16 14 1 1 2.</_></rects>
      <tilted>0</tilted></_>
    <_>
      <rects>
        <_>
          15 14 3 2 -1.</_>
        <_>
          15 15 3 1 2.</_></rects>
      <tilted>0</tilted></_>
    <_>
      <rects>
        <_>
          15 16 2 2 -1.</_>
        <_>
          15 16 1 1 2.</_>
        <_>
          16 17 1 1 2.</_></rects>
      <tilted>0</tilted></_>
    <_>
      <rects>
        <_>
          16 3 6 2 -1.</_>
        <_>
          16 3 3 1 2.</_>
        <_>
          19 4 3 1 2.</_></rects>
      <tilted>0</tilted></_>
    <_>
      <rects>
        <_>
          16 4 2 4 -1.</_>
        <_>
          17 4 1 4 2.</_></rects>
      <tilted>0</tilted></_>
    <_>
      <rects>
        <_>
          16 7 8 7 -1.</_>
        <_>
          20 7 4 7 2.</_></rects>
      <tilted>0</tilted></_>
    <_>
      <rects>
        <_>
          17 0 6 1 -1.</_>
        <_>
          20 0 3 1 2.</_></rects>
      <tilted>0</tilted></_>
    <_>
      <rects>
        <_>
          17 3 6 6 -1.</_>
        <_>
          17 5 6 2 2.</_></rects>
      <tilted>0</tilted></_>
    <_>
      <rects>
        <_>
          18 10 2 5 -1.</_>
        <_>
          19 10 1 5 2.</_></rects>
      <tilted>0</tilted></_>
    <_>
      <rects>
        <_>
          18 12 5 4 -1.</_>
        <_>
          18 14 5 2 2.</_></rects>
      <tilted>0</tilted></_>
    <_>
      <rects>
        <_>
          19 1 1 8 -1.</_>
        <_>
          19 5 1 4 2.</_></rects>
      <tilted>0</tilted></_>
    <_>
      <rects>
        <_>
          19 3 4 12 -1.</_>
        <_>
          21 3 2 12 2.</_></rects>
      <tilted>0</tilted></_>
    <_>
      <rects>
        <_>
          19 7 4 15 -1.</_>
        <_>
          21 7 2 15 2.</_></rects>
      <tilted>0</tilted></_>
    <_>
      <rects>
        <_>
          20 3 4 20 -1.</_>
        <_>
          22 3 2 20 2.</_></rects>
      <tilted>0</tilted></_>
    <_>
      <rects>
        <_>
          20 4 1 4 -1.</_>
        <_>
          20 6 1 2 2.</_></rects>
      <tilted>0</tilted></_>
    <_>
      <rects>
        <_>
          20 4 2 3 -1.</_>
        <_>
          21 4 1 3 2.</_></rects>
      <tilted>0</tilted></_>
    <_>
      <rects>
        <_>
          20 4 4 4 -1.</_>
        <_>
          20 6 4 2 2.</_></rects>
      <tilted>0</tilted></_>
    <_>
      <rects>
        <_>
          20 5 2 13 -1.</_>
        <_>
          21 5 1 13 2.</_></rects>
      <tilted>0</tilted></_>
    <_>
      <rects>
        <_>
          20 5 4 10 -1.</_>
        <_>
          22 5 2 10 2.</_></rects>
      <tilted>0</tilted></_>
    <_>
      <rects>
        <_>
          20 8 2 2 -1.</_>
        <_>
          20 8 1 1 2.</_>
        <_>
          21 9 1 1 2.</_></rects>
      <tilted>0</tilted></_>
    <_>
      <rects>
        <_>
          20 22 2 2 -1.</_>
        <_>
          21 22 1 2 2.</_></rects>
      <tilted>0</tilted></_>
    <_>
      <rects>
        <_>
          21 0 1 2 -1.</_>
        <_>
          21 1 1 1 2.</_></rects>
      <tilted>0</tilted></_>
    <_>
      <rects>
        <_>
          21 0 2 2 -1.</_>
        <_>
          21 1 2 1 2.</_></rects>
      <tilted>0</tilted></_>
    <_>
      <rects>
        <_>
          21 2 2 4 -1.</_>
        <_>
          22 2 1 4 2.</_></rects>
      <tilted>0</tilted></_>
    <_>
      <rects>
        <_>
          21 20 1 2 -1.</_>
        <_>
          21 21 1 1 2.</_></rects>
      <tilted>0</tilted></_>
    <_>
      <rects>
        <_>
          22 0 2 2 -1.</_>
        <_>
          22 0 1 1 2.</_>
        <_>
          23 1 1 1 2.</_></rects>
      <tilted>0</tilted></_>
    <_>
      <rects>
        <_>
          23 0 1 8 -1.</_>
        <_>
          23 4 1 4 2.</_></rects>
      <tilted>0</tilted></_>
    <_>
      <rects>
        <_>
          23 3 1 2 -1.</_>
        <_>
          23 4 1 1 2.</_></rects>
      <tilted>0</tilted></_>
    <_>
      <rects>
        <_>
          23 18 1 3 -1.</_>
        <_>
          23 19 1 1 2.</_></rects>
      <tilted>0</tilted></_></features></cascade>
</opencv_storage>
