<?xml version="1.0"?>
<opencv_storage>
<stage1>
  <maxWeakCount>6</maxWeakCount>
  <stageThreshold>-9.0235990285873413e-01</stageThreshold>
  <weakClassifiers>
    <_>
      <internalNodes>
        0 -1 128659 -1.8833735585212708e-01</internalNodes>
      <leafValues>
        5.1612901687622070e-01 -5.6140351295471191e-01</leafValues></_>
    <_>
      <internalNodes>
        0 -1 143799 1.3754868879914284e-02</internalNodes>
      <leafValues>
        -2.5147330760955811e-01 8.2595115900039673e-01</leafValues></_>
    <_>
      <internalNodes>
        0 -1 143567 -6.5517965704202652e-03</internalNodes>
      <leafValues>
        7.0677554607391357e-01 -3.5980275273323059e-01</leafValues></_>
    <_>
      <internalNodes>
        0 -1 1250 -2.6632778346538544e-02</internalNodes>
      <leafValues>
        8.7209016084671021e-01 -1.9730070233345032e-01</leafValues></_>
    <_>
      <internalNodes>
        0 -1 137372 1.8904840108007193e-03</internalNodes>
      <leafValues>
        -3.0029255151748657e-01 6.3800674676895142e-01</leafValues></_>
    <_>
      <internalNodes>
        0 -1 89310 -2.4845725856721401e-03</internalNodes>
      <leafValues>
        6.3185936212539673e-01 -3.0951154232025146e-01</leafValues></_></weakClassifiers></stage1>
</opencv_storage>
