<?xml version="1.0"?>
<opencv_storage>
<stage6>
  <maxWeakCount>7</maxWeakCount>
  <stageThreshold>-3.8609826564788818e-01</stageThreshold>
  <weakClassifiers>
    <_>
      <internalNodes>
        0 -1 162288 -1.1430780868977308e-03</internalNodes>
      <leafValues>
        -8.8235294818878174e-01 1.4705882966518402e-01</leafValues></_>
    <_>
      <internalNodes>
        0 -1 10873 -3.2262563705444336e-02</internalNodes>
      <leafValues>
        -7.8585046529769897e-01 1.3080650568008423e-01</leafValues></_>
    <_>
      <internalNodes>
        0 -1 137618 8.2696456229314208e-04</internalNodes>
      <leafValues>
        -2.1846687793731689e-01 6.7318117618560791e-01</leafValues></_>
    <_>
      <internalNodes>
        0 -1 27764 4.2274844599887729e-04</internalNodes>
      <leafValues>
        -2.3090399801731110e-01 5.2373170852661133e-01</leafValues></_>
    <_>
      <internalNodes>
        0 -1 39205 -2.0187380909919739e-01</internalNodes>
      <leafValues>
        -2.7290764451026917e-01 7.0793694257736206e-01</leafValues></_>
    <_>
      <internalNodes>
        0 -1 162045 -7.5759040191769600e-04</internalNodes>
      <leafValues>
        -8.5284894704818726e-01 2.1559351682662964e-01</leafValues></_>
    <_>
      <internalNodes>
        0 -1 115523 1.5871766954660416e-03</internalNodes>
      <leafValues>
        1.5652818977832794e-01 -7.9461705684661865e-01</leafValues></_></weakClassifiers></stage6>
</opencv_storage>
