<?xml version="1.0"?>
<opencv_storage>
<stage17>
  <maxWeakCount>6</maxWeakCount>
  <stageThreshold>-2.8125301003456116e-01</stageThreshold>
  <weakClassifiers>
    <_>
      <internalNodes>
        0 -1 90440 -7.1160428225994110e-02</internalNodes>
      <leafValues>
        9.0163934230804443e-01 -3.1073445081710815e-01</leafValues></_>
    <_>
      <internalNodes>
        0 -1 53124 -2.8623706102371216e-01</internalNodes>
      <leafValues>
        6.7447096109390259e-01 -3.4117722511291504e-01</leafValues></_>
    <_>
      <internalNodes>
        0 -1 156796 -1.3835809659212828e-03</internalNodes>
      <leafValues>
        -8.2826429605484009e-01 2.5546616315841675e-01</leafValues></_>
    <_>
      <internalNodes>
        0 -1 160277 -1.0747052729129791e-03</internalNodes>
      <leafValues>
        -8.4594094753265381e-01 1.8996137380599976e-01</leafValues></_>
    <_>
      <internalNodes>
        0 -1 115166 -1.1309342086315155e-01</internalNodes>
      <leafValues>
        5.7990884780883789e-01 -3.2771417498588562e-01</leafValues></_>
    <_>
      <internalNodes>
        0 -1 66692 -1.9376766867935658e-03</internalNodes>
      <leafValues>
        -7.6270288228988647e-01 2.7073726058006287e-01</leafValues></_></weakClassifiers></stage17>
</opencv_storage>
