<?xml version="1.0"?>
<opencv_storage>
<stage7>
  <maxWeakCount>8</maxWeakCount>
  <stageThreshold>-6.1275303363800049e-01</stageThreshold>
  <weakClassifiers>
    <_>
      <internalNodes>
        0 -1 90981 -5.4467134177684784e-02</internalNodes>
      <leafValues>
        8.0769228935241699e-01 -2.2580644488334656e-01</leafValues></_>
    <_>
      <internalNodes>
        0 -1 1 -3.6889838520437479e-04</internalNodes>
      <leafValues>
        -5.8470916748046875e-01 2.4945968389511108e-01</leafValues></_>
    <_>
      <internalNodes>
        0 -1 34898 6.8286076188087463e-02</internalNodes>
      <leafValues>
        1.5454261004924774e-01 -8.0283373594284058e-01</leafValues></_>
    <_>
      <internalNodes>
        0 -1 157570 -6.1483687022700906e-04</internalNodes>
      <leafValues>
        -5.0472950935363770e-01 2.4222363531589508e-01</leafValues></_>
    <_>
      <internalNodes>
        0 -1 159684 -1.2625191629922483e-05</internalNodes>
      <leafValues>
        4.0189048647880554e-01 -4.0758481621742249e-01</leafValues></_>
    <_>
      <internalNodes>
        0 -1 25382 -1.4207823202013969e-02</internalNodes>
      <leafValues>
        -6.0699528455734253e-01 2.8199046850204468e-01</leafValues></_>
    <_>
      <internalNodes>
        0 -1 94336 -4.6902224421501160e-03</internalNodes>
      <leafValues>
        -5.5195122957229614e-01 2.8814423084259033e-01</leafValues></_>
    <_>
      <internalNodes>
        0 -1 9572 -1.6802592203021049e-02</internalNodes>
      <leafValues>
        7.3503828048706055e-01 -2.7611646056175232e-01</leafValues></_></weakClassifiers></stage7>
</opencv_storage>
