<?xml version="1.0"?>
<opencv_storage>
<stage10>
  <maxWeakCount>6</maxWeakCount>
  <stageThreshold>-1.2190443277359009e+00</stageThreshold>
  <weakClassifiers>
    <_>
      <internalNodes>
        0 -1 96790 -1.0333415120840073e-03</internalNodes>
      <leafValues>
        -1.4285714924335480e-01 -7.6754385232925415e-01</leafValues></_>
    <_>
      <internalNodes>
        0 -1 98656 8.8239525211974978e-05</internalNodes>
      <leafValues>
        -4.2696781456470490e-03 -7.1616894006729126e-01</leafValues></_>
    <_>
      <internalNodes>
        0 -1 158380 6.0843699611723423e-03</internalNodes>
      <leafValues>
        9.3016460537910461e-02 -8.5484832525253296e-01</leafValues></_>
    <_>
      <internalNodes>
        0 -1 78994 -8.5564237087965012e-04</internalNodes>
      <leafValues>
        6.0352063179016113e-01 -2.2124604880809784e-01</leafValues></_>
    <_>
      <internalNodes>
        0 -1 158256 -2.8854450210928917e-03</internalNodes>
      <leafValues>
        -8.3917891979217529e-01 2.3401808738708496e-01</leafValues></_>
    <_>
      <internalNodes>
        0 -1 136067 8.9841008186340332e-02</internalNodes>
      <leafValues>
        -3.0458897352218628e-01 4.1010367870330811e-01</leafValues></_></weakClassifiers></stage10>
</opencv_storage>
