<?xml version="1.0"?>
<opencv_storage>
<stage24>
<<<<<<< HEAD
  <maxWeakCount>7</maxWeakCount>
  <stageThreshold>-8.5669052600860596e-01</stageThreshold>
  <weakClassifiers>
    <_>
      <internalNodes>
        0 -1 137856 1.2464525643736124e-03</internalNodes>
      <leafValues>
        -5.4440152645111084e-01 1.</leafValues></_>
    <_>
      <internalNodes>
        0 -1 78991 1.5087040083017200e-04</internalNodes>
      <leafValues>
        -4.4320207834243774e-01 4.3160030245780945e-01</leafValues></_>
    <_>
      <internalNodes>
        0 -1 92234 -1.4838287606835365e-03</internalNodes>
      <leafValues>
        4.6126291155815125e-01 -3.6115586757659912e-01</leafValues></_>
    <_>
      <internalNodes>
        0 -1 138460 -7.6341308886185288e-04</internalNodes>
      <leafValues>
        8.5348635911941528e-01 -2.0795656740665436e-01</leafValues></_>
    <_>
      <internalNodes>
        0 -1 96088 5.1452708430588245e-04</internalNodes>
      <leafValues>
        -3.3016845583915710e-01 5.3704315423965454e-01</leafValues></_>
    <_>
      <internalNodes>
        0 -1 148299 2.4109854712150991e-04</internalNodes>
      <leafValues>
        -4.3543148040771484e-01 4.9284657835960388e-01</leafValues></_>
    <_>
      <internalNodes>
        0 -1 41502 2.9270949307829142e-03</internalNodes>
      <leafValues>
        -2.2400495409965515e-01 7.8289675712585449e-01</leafValues></_></weakClassifiers></stage24>
=======
  <maxWeakCount>10</maxWeakCount>
  <stageThreshold>-4.4220256805419922e-01</stageThreshold>
  <weakClassifiers>
    <_>
      <internalNodes>
        0 -1 161430 8.4300916641950607e-03</internalNodes>
      <leafValues>
        -1.5463916957378387e-01 6.8181818723678589e-01</leafValues></_>
    <_>
      <internalNodes>
        0 -1 44225 7.3703932575881481e-03</internalNodes>
      <leafValues>
        -1.7968225479125977e-01 5.8931273221969604e-01</leafValues></_>
    <_>
      <internalNodes>
        0 -1 132753 -3.4070732071995735e-03</internalNodes>
      <leafValues>
        -1.9696408510208130e-01 6.2981414794921875e-01</leafValues></_>
    <_>
      <internalNodes>
        0 -1 80738 -5.4706484079360962e-03</internalNodes>
      <leafValues>
        4.9207893013954163e-01 -2.8154823184013367e-01</leafValues></_>
    <_>
      <internalNodes>
        0 -1 158671 -2.8498237952589989e-04</internalNodes>
      <leafValues>
        5.2813142538070679e-01 -2.6894688606262207e-01</leafValues></_>
    <_>
      <internalNodes>
        0 -1 157945 -2.0699962042272091e-03</internalNodes>
      <leafValues>
        -5.9109884500503540e-01 2.2902414202690125e-01</leafValues></_>
    <_>
      <internalNodes>
        0 -1 109645 -2.9316433938220143e-04</internalNodes>
      <leafValues>
        3.3588647842407227e-01 -4.3032839894294739e-01</leafValues></_>
    <_>
      <internalNodes>
        0 -1 115372 -1.1512667685747147e-01</internalNodes>
      <leafValues>
        9.1736239194869995e-01 -1.3882872462272644e-01</leafValues></_>
    <_>
      <internalNodes>
        0 -1 128336 -6.4009446650743484e-03</internalNodes>
      <leafValues>
        -6.4888024330139160e-01 2.1608005464076996e-01</leafValues></_>
    <_>
      <internalNodes>
        0 -1 87010 -6.4987182617187500e-02</internalNodes>
      <leafValues>
        -7.7621102333068848e-01 1.2292928993701935e-01</leafValues></_></weakClassifiers></stage24>
>>>>>>> 8f42376a339c8dffc6242c2a5b65310ee7336543
</opencv_storage>
