<?xml version="1.0"?>
<opencv_storage>
<stage0>
  <maxWeakCount>5</maxWeakCount>
  <stageThreshold>-1.1428911685943604e+00</stageThreshold>
  <weakClassifiers>
    <_>
      <internalNodes>
        0 -1 146329 4.6075582504272461e-02</internalNodes>
      <leafValues>
        -8.1434601545333862e-01 7.3684209585189819e-01</leafValues></_>
    <_>
      <internalNodes>
        0 -1 20342 -1.0126681067049503e-02</internalNodes>
      <leafValues>
        6.4498168230056763e-01 -5.6837582588195801e-01</leafValues></_>
    <_>
      <internalNodes>
        0 -1 96146 -1.1641048640012741e-01</internalNodes>
      <leafValues>
        -9.9161815643310547e-01 2.6217406988143921e-01</leafValues></_>
    <_>
      <internalNodes>
        0 -1 72676 -4.9583137035369873e-01</internalNodes>
      <leafValues>
        3.4411498904228210e-01 -7.0128548145294189e-01</leafValues></_>
    <_>
      <internalNodes>
        0 -1 25095 2.0137652754783630e-02</internalNodes>
      <leafValues>
        -3.6645841598510742e-01 7.5940757989883423e-01</leafValues></_></weakClassifiers></stage0>
</opencv_storage>
