<?xml version="1.0"?>
<opencv_storage>
<stage7>
  <maxWeakCount>6</maxWeakCount>
  <stageThreshold>-1.5281237363815308e+00</stageThreshold>
  <weakClassifiers>
    <_>
      <internalNodes>
        0 -1 38760 -1.9295200705528259e-01</internalNodes>
      <leafValues>
        4.6666666865348816e-01 -8.1156319379806519e-01</leafValues></_>
    <_>
      <internalNodes>
        0 -1 51585 -4.3544102460145950e-02</internalNodes>
      <leafValues>
        3.4092748165130615e-01 -5.2178543806076050e-01</leafValues></_>
    <_>
      <internalNodes>
        0 -1 159733 7.8376301098614931e-04</internalNodes>
      <leafValues>
        1.6499795019626617e-01 -8.3285957574844360e-01</leafValues></_>
    <_>
      <internalNodes>
        0 -1 115523 -1.1040337849408388e-03</internalNodes>
      <leafValues>
        -8.2796233892440796e-01 1.2538224458694458e-01</leafValues></_>
    <_>
      <internalNodes>
        0 -1 113740 -2.3215621709823608e-02</internalNodes>
      <leafValues>
        6.8207353353500366e-01 -2.2408187389373779e-01</leafValues></_>
    <_>
      <internalNodes>
        0 -1 120342 -3.2534636557102203e-03</internalNodes>
      <leafValues>
        5.1462066173553467e-01 -2.6107344031333923e-01</leafValues></_></weakClassifiers></stage7>
</opencv_storage>
