<?xml version="1.0"?>
<opencv_storage>
<stage19>
  <maxWeakCount>8</maxWeakCount>
  <stageThreshold>-7.5775694847106934e-01</stageThreshold>
  <weakClassifiers>
    <_>
      <internalNodes>
        0 -1 2457 -2.5913351774215698e-01</internalNodes>
      <leafValues>
        6.9444441795349121e-01 -3.0120483040809631e-01</leafValues></_>
    <_>
      <internalNodes>
        0 -1 66403 -2.1425776183605194e-02</internalNodes>
      <leafValues>
        -7.4466288089752197e-01 2.6541653275489807e-01</leafValues></_>
    <_>
      <internalNodes>
        0 -1 1996 -1.5073129534721375e-01</internalNodes>
      <leafValues>
        8.4810674190521240e-01 -2.2875438630580902e-01</leafValues></_>
    <_>
      <internalNodes>
        0 -1 4150 1.5918215503916144e-03</internalNodes>
      <leafValues>
        2.3208871483802795e-01 -6.5908044576644897e-01</leafValues></_>
    <_>
      <internalNodes>
        0 -1 30401 -2.1927440539002419e-03</internalNodes>
      <leafValues>
        1.5216296911239624e-01 -1.</leafValues></_>
    <_>
      <internalNodes>
        0 -1 77888 -9.8666325211524963e-03</internalNodes>
      <leafValues>
        -6.8832999467849731e-01 2.1266227960586548e-01</leafValues></_>
    <_>
      <internalNodes>
        0 -1 157771 -1.3400496542453766e-01</internalNodes>
      <leafValues>
        3.0279174447059631e-01 -4.4600394368171692e-01</leafValues></_>
    <_>
      <internalNodes>
        0 -1 37984 9.7569223726168275e-05</internalNodes>
      <leafValues>
        3.1901502609252930e-01 -5.0175076723098755e-01</leafValues></_></weakClassifiers></stage19>
</opencv_storage>
