<?xml version="1.0"?>
<opencv_storage>
<stage22>
  <maxWeakCount>8</maxWeakCount>
  <stageThreshold>-4.9792692065238953e-01</stageThreshold>
  <weakClassifiers>
    <_>
      <internalNodes>
        0 -1 159970 -1.3111477717757225e-02</internalNodes>
      <leafValues>
        4.7126436233520508e-01 -2.7152317762374878e-01</leafValues></_>
    <_>
      <internalNodes>
        0 -1 96790 -1.5075060073286295e-03</internalNodes>
      <leafValues>
        1. -1.2147171795368195e-01</leafValues></_>
    <_>
      <internalNodes>
        0 -1 38907 -3.5379803180694580e-01</internalNodes>
      <leafValues>
        7.9092079401016235e-01 -1.5789742767810822e-01</leafValues></_>
    <_>
      <internalNodes>
        0 -1 26772 3.9053447544574738e-02</internalNodes>
      <leafValues>
        -1.6062510013580322e-01 7.0136290788650513e-01</leafValues></_>
    <_>
      <internalNodes>
        0 -1 71410 -4.9596220254898071e-02</internalNodes>
      <leafValues>
        5.3864657878875732e-01 -2.5963789224624634e-01</leafValues></_>
    <_>
      <internalNodes>
        0 -1 78994 -1.0109044378623366e-03</internalNodes>
      <leafValues>
        8.6607408523559570e-01 -1.4446732401847839e-01</leafValues></_>
    <_>
      <internalNodes>
        0 -1 4081 3.3047638135030866e-04</internalNodes>
      <leafValues>
        2.6595377922058105e-01 -5.5160790681838989e-01</leafValues></_>
    <_>
      <internalNodes>
        0 -1 128591 -2.9315223218873143e-04</internalNodes>
      <leafValues>
        -4.4654250144958496e-01 3.5582259297370911e-01</leafValues></_></weakClassifiers></stage22>
</opencv_storage>
