<?xml version="1.0"?>
<opencv_storage>
<stage17>
  <maxWeakCount>8</maxWeakCount>
  <stageThreshold>-1.5775064229965210e+00</stageThreshold>
  <weakClassifiers>
    <_>
      <internalNodes>
        0 -1 159978 -4.3616136536002159e-03</internalNodes>
      <leafValues>
        5.0000000000000000e-01 -7.3790323734283447e-01</leafValues></_>
    <_>
      <internalNodes>
        0 -1 17195 -5.3433007560670376e-03</internalNodes>
      <leafValues>
        5.3140789270401001e-01 -3.4269389510154724e-01</leafValues></_>
    <_>
      <internalNodes>
        0 -1 485 -1.3644066639244556e-02</internalNodes>
      <leafValues>
        -6.7499232292175293e-01 1.7931370437145233e-01</leafValues></_>
    <_>
      <internalNodes>
        0 -1 122412 -2.2053514840081334e-04</internalNodes>
      <leafValues>
        -6.8583732843399048e-01 1.5410709381103516e-01</leafValues></_>
    <_>
      <internalNodes>
        0 -1 78693 -2.3689845111221075e-03</internalNodes>
      <leafValues>
        -4.1679441928863525e-01 2.8103420138359070e-01</leafValues></_>
    <_>
      <internalNodes>
        0 -1 126624 -7.0679036434739828e-04</internalNodes>
      <leafValues>
        5.6607836484909058e-01 -2.1439866721630096e-01</leafValues></_>
    <_>
      <internalNodes>
        0 -1 14507 8.1292884424328804e-03</internalNodes>
      <leafValues>
        2.1008035540580750e-01 -6.5384215116500854e-01</leafValues></_>
    <_>
      <internalNodes>
        0 -1 70389 2.3956787772476673e-03</internalNodes>
      <leafValues>
        -3.3538827300071716e-01 4.1705185174942017e-01</leafValues></_></weakClassifiers></stage17>
</opencv_storage>
