<?xml version="1.0"?>
<opencv_storage>
<stage8>
  <maxWeakCount>7</maxWeakCount>
  <stageThreshold>-1.3604506254196167e+00</stageThreshold>
  <weakClassifiers>
    <_>
      <internalNodes>
        0 -1 15047 -7.9157367348670959e-02</internalNodes>
      <leafValues>
        4.7619047760963440e-01 -8.0425530672073364e-01</leafValues></_>
    <_>
      <internalNodes>
        0 -1 14208 -1.6301220655441284e-01</internalNodes>
      <leafValues>
        4.9777701497077942e-01 -4.5218759775161743e-01</leafValues></_>
    <_>
      <internalNodes>
        0 -1 62703 4.3417021632194519e-02</internalNodes>
      <leafValues>
        -2.5516381859779358e-01 7.3194479942321777e-01</leafValues></_>
    <_>
      <internalNodes>
        0 -1 5239 -5.1003694534301758e-02</internalNodes>
      <leafValues>
        3.9808881282806396e-01 -4.6792426705360413e-01</leafValues></_>
    <_>
      <internalNodes>
        0 -1 26727 2.3836904764175415e-01</internalNodes>
      <leafValues>
        -2.5200927257537842e-01 6.2280106544494629e-01</leafValues></_>
    <_>
      <internalNodes>
        0 -1 71421 -1.9526776671409607e-01</internalNodes>
      <leafValues>
        7.7636545896530151e-01 -2.0021085441112518e-01</leafValues></_>
    <_>
      <internalNodes>
        0 -1 164 2.0478568039834499e-03</internalNodes>
      <leafValues>
        2.0528738200664520e-01 -9.3060892820358276e-01</leafValues></_></weakClassifiers></stage8>
</opencv_storage>
