<?xml version="1.0"?>
<opencv_storage>
<stage0>
<<<<<<< HEAD
  <maxWeakCount>7</maxWeakCount>
  <stageThreshold>-4.9852007627487183e-01</stageThreshold>
  <weakClassifiers>
    <_>
      <internalNodes>
        0 -1 158616 1.2297619134187698e-02</internalNodes>
      <leafValues>
        -2.6486486196517944e-01 9.2452830076217651e-01</leafValues></_>
    <_>
      <internalNodes>
        0 -1 87831 -1.1531822383403778e-01</internalNodes>
      <leafValues>
        -1. 3.0660611391067505e-01</leafValues></_>
    <_>
      <internalNodes>
        0 -1 42393 -7.5319781899452209e-03</internalNodes>
      <leafValues>
        8.4686964750289917e-01 -3.3183029294013977e-01</leafValues></_>
    <_>
      <internalNodes>
        0 -1 39895 2.2738627158105373e-03</internalNodes>
      <leafValues>
        -2.9218006134033203e-01 7.7973318099975586e-01</leafValues></_>
    <_>
      <internalNodes>
        0 -1 70127 5.3415540605783463e-03</internalNodes>
      <leafValues>
        -2.6339176297187805e-01 7.8527045249938965e-01</leafValues></_>
    <_>
      <internalNodes>
        0 -1 104012 6.0222786851227283e-04</internalNodes>
      <leafValues>
        -2.3124569654464722e-01 9.6213114261627197e-01</leafValues></_>
    <_>
      <internalNodes>
        0 -1 90581 -1.0359412990510464e-03</internalNodes>
      <leafValues>
        5.7838648557662964e-01 -4.0585303306579590e-01</leafValues></_></weakClassifiers></stage0>
=======
  <maxWeakCount>5</maxWeakCount>
  <stageThreshold>-1.1428911685943604e+00</stageThreshold>
  <weakClassifiers>
    <_>
      <internalNodes>
        0 -1 146329 4.6075582504272461e-02</internalNodes>
      <leafValues>
        -8.1434601545333862e-01 7.3684209585189819e-01</leafValues></_>
    <_>
      <internalNodes>
        0 -1 20342 -1.0126681067049503e-02</internalNodes>
      <leafValues>
        6.4498168230056763e-01 -5.6837582588195801e-01</leafValues></_>
    <_>
      <internalNodes>
        0 -1 96146 -1.1641048640012741e-01</internalNodes>
      <leafValues>
        -9.9161815643310547e-01 2.6217406988143921e-01</leafValues></_>
    <_>
      <internalNodes>
        0 -1 72676 -4.9583137035369873e-01</internalNodes>
      <leafValues>
        3.4411498904228210e-01 -7.0128548145294189e-01</leafValues></_>
    <_>
      <internalNodes>
        0 -1 25095 2.0137652754783630e-02</internalNodes>
      <leafValues>
        -3.6645841598510742e-01 7.5940757989883423e-01</leafValues></_></weakClassifiers></stage0>
>>>>>>> 9b34cb6b99be14fcc5a21167ecb874d5fae3551f
</opencv_storage>
