<?xml version="1.0"?>
<opencv_storage>
<stage25>
<<<<<<< HEAD
  <maxWeakCount>8</maxWeakCount>
  <stageThreshold>-7.1665585041046143e-01</stageThreshold>
  <weakClassifiers>
    <_>
      <internalNodes>
        0 -1 92176 -3.8811095058917999e-02</internalNodes>
      <leafValues>
        7.1428573131561279e-01 -5.7429718971252441e-01</leafValues></_>
    <_>
      <internalNodes>
        0 -1 13722 2.4097979068756104e-02</internalNodes>
      <leafValues>
        1.1576359719038010e-01 -1.</leafValues></_>
    <_>
      <internalNodes>
        0 -1 80419 5.5818120017647743e-03</internalNodes>
      <leafValues>
        -2.5569450855255127e-01 6.8884199857711792e-01</leafValues></_>
    <_>
      <internalNodes>
        0 -1 160994 -2.8332616202533245e-03</internalNodes>
      <leafValues>
        8.3860468864440918e-01 -2.4336180090904236e-01</leafValues></_>
    <_>
      <internalNodes>
        0 -1 63701 -2.7223518118262291e-03</internalNodes>
      <leafValues>
        7.4910014867782593e-01 -2.4668371677398682e-01</leafValues></_>
    <_>
      <internalNodes>
        0 -1 47187 -4.0860143490135670e-03</internalNodes>
      <leafValues>
        -9.3604594469070435e-01 2.7486991882324219e-01</leafValues></_>
    <_>
      <internalNodes>
        0 -1 106489 1.0587524157017469e-03</internalNodes>
      <leafValues>
        -4.2279097437858582e-01 5.5137139558792114e-01</leafValues></_>
    <_>
      <internalNodes>
        0 -1 94825 -2.4799713864922523e-03</internalNodes>
      <leafValues>
        7.6234799623489380e-01 -3.3862352371215820e-01</leafValues></_></weakClassifiers></stage25>
=======
  <maxWeakCount>7</maxWeakCount>
  <stageThreshold>-7.1019005775451660e-01</stageThreshold>
  <weakClassifiers>
    <_>
      <internalNodes>
        0 -1 82749 -7.7816724777221680e-02</internalNodes>
      <leafValues>
        5.8823531866073608e-01 -2.3529411852359772e-01</leafValues></_>
    <_>
      <internalNodes>
        0 -1 43056 4.8962456639856100e-04</internalNodes>
      <leafValues>
        -2.9832875728607178e-01 4.6163773536682129e-01</leafValues></_>
    <_>
      <internalNodes>
        0 -1 58194 1.1250555980950594e-03</internalNodes>
      <leafValues>
        -2.9891607165336609e-01 5.0165140628814697e-01</leafValues></_>
    <_>
      <internalNodes>
        0 -1 98990 -5.2517041563987732e-02</internalNodes>
      <leafValues>
        1.6367398202419281e-01 -8.3764493465423584e-01</leafValues></_>
    <_>
      <internalNodes>
        0 -1 115078 1.2015931308269501e-02</internalNodes>
      <leafValues>
        1.1492042988538742e-01 -8.4029263257980347e-01</leafValues></_>
    <_>
      <internalNodes>
        0 -1 400 8.3845406770706177e-03</internalNodes>
      <leafValues>
        2.1540397405624390e-01 -6.8220692873001099e-01</leafValues></_>
    <_>
      <internalNodes>
        0 -1 156057 1.1042913421988487e-02</internalNodes>
      <leafValues>
        -2.7460610866546631e-01 5.7319945096969604e-01</leafValues></_></weakClassifiers></stage25>
>>>>>>> 8f42376a339c8dffc6242c2a5b65310ee7336543
</opencv_storage>
