<?xml version="1.0"?>
<opencv_storage>
<stage14>
  <maxWeakCount>8</maxWeakCount>
  <stageThreshold>-1.2655471563339233e+00</stageThreshold>
  <weakClassifiers>
    <_>
      <internalNodes>
        0 -1 156502 5.7573117315769196e-02</internalNodes>
      <leafValues>
        -7.5157892704010010e-01 -2.7027027681469917e-02</leafValues></_>
    <_>
      <internalNodes>
        0 -1 64918 6.0055742505937815e-04</internalNodes>
      <leafValues>
        -3.7031501531600952e-01 3.6614933609962463e-01</leafValues></_>
    <_>
      <internalNodes>
        0 -1 27500 -2.0682793110609055e-02</internalNodes>
      <leafValues>
        -6.2727421522140503e-01 1.7324197292327881e-01</leafValues></_>
    <_>
      <internalNodes>
        0 -1 7214 1.5434987843036652e-02</internalNodes>
      <leafValues>
        1.4529064297676086e-01 -7.3064619302749634e-01</leafValues></_>
    <_>
      <internalNodes>
        0 -1 143499 6.0778285842388868e-05</internalNodes>
      <leafValues>
        -4.1555917263031006e-01 2.9247277975082397e-01</leafValues></_>
    <_>
      <internalNodes>
        0 -1 159721 -7.1195431519299746e-04</internalNodes>
      <leafValues>
        -6.9933962821960449e-01 1.5261529386043549e-01</leafValues></_>
    <_>
      <internalNodes>
        0 -1 140159 -1.1407667770981789e-02</internalNodes>
      <leafValues>
        6.3135772943496704e-01 -1.7975796759128571e-01</leafValues></_>
    <_>
      <internalNodes>
        0 -1 162106 -2.8852447867393494e-03</internalNodes>
      <leafValues>
        -6.0923308134078979e-01 2.1247285604476929e-01</leafValues></_></weakClassifiers></stage14>
</opencv_storage>
