<?xml version="1.0"?>
<opencv_storage>
<stage9>
  <maxWeakCount>6</maxWeakCount>
  <stageThreshold>-1.3755702972412109e+00</stageThreshold>
  <weakClassifiers>
    <_>
      <internalNodes>
        0 -1 60683 -5.8881148695945740e-02</internalNodes>
      <leafValues>
        -9.4736844301223755e-02 -8.3693045377731323e-01</leafValues></_>
    <_>
      <internalNodes>
        0 -1 26674 -1.0216674953699112e-01</internalNodes>
      <leafValues>
        3.8983103632926941e-01 -4.4027298688888550e-01</leafValues></_>
    <_>
      <internalNodes>
        0 -1 42659 -1.8997913599014282e-01</internalNodes>
      <leafValues>
        2.7908027172088623e-01 -5.7668632268905640e-01</leafValues></_>
    <_>
      <internalNodes>
        0 -1 161187 1.6699470870662481e-04</internalNodes>
      <leafValues>
        2.0485520362854004e-01 -7.3744517564773560e-01</leafValues></_>
    <_>
      <internalNodes>
        0 -1 7679 1.2545121833682060e-02</internalNodes>
      <leafValues>
        1.3239207863807678e-01 -9.7038060426712036e-01</leafValues></_>
    <_>
      <internalNodes>
        0 -1 48386 1.6735853627324104e-02</internalNodes>
      <leafValues>
        1.4107222855091095e-01 -8.4071606397628784e-01</leafValues></_></weakClassifiers></stage9>
</opencv_storage>
