<?xml version="1.0"?>
<opencv_storage>
<stage23>
<<<<<<< HEAD
  <maxWeakCount>6</maxWeakCount>
  <stageThreshold>-7.2509402036666870e-01</stageThreshold>
  <weakClassifiers>
    <_>
      <internalNodes>
        0 -1 30651 -3.1121902167797089e-02</internalNodes>
      <leafValues>
        1. -5.3256702423095703e-01</leafValues></_>
    <_>
      <internalNodes>
        0 -1 26770 -1.7786506563425064e-02</internalNodes>
      <leafValues>
        5.5570191144943237e-01 -3.8780719041824341e-01</leafValues></_>
    <_>
      <internalNodes>
        0 -1 127465 8.7096312199719250e-05</internalNodes>
      <leafValues>
        -3.4210383892059326e-01 4.7847580909729004e-01</leafValues></_>
    <_>
      <internalNodes>
        0 -1 9224 8.4023132920265198e-02</internalNodes>
      <leafValues>
        -1.5600821375846863e-01 1.</leafValues></_>
    <_>
      <internalNodes>
        0 -1 162268 -8.7243155576288700e-04</internalNodes>
      <leafValues>
        -8.7777853012084961e-01 2.3125259578227997e-01</leafValues></_>
    <_>
      <internalNodes>
        0 -1 89436 -4.2870648030657321e-05</internalNodes>
      <leafValues>
        5.8512407541275024e-01 -3.5844001173973083e-01</leafValues></_></weakClassifiers></stage23>
=======
  <maxWeakCount>8</maxWeakCount>
  <stageThreshold>-4.4539648294448853e-01</stageThreshold>
  <weakClassifiers>
    <_>
      <internalNodes>
        0 -1 1129 -3.9599910378456116e-03</internalNodes>
      <leafValues>
        5.9322035312652588e-01 -1.9553072750568390e-01</leafValues></_>
    <_>
      <internalNodes>
        0 -1 25280 1.4736967568751425e-04</internalNodes>
      <leafValues>
        -2.6531156897544861e-01 4.4025370478630066e-01</leafValues></_>
    <_>
      <internalNodes>
        0 -1 121004 -3.3880408853292465e-02</internalNodes>
      <leafValues>
        6.0381990671157837e-01 -2.3277518153190613e-01</leafValues></_>
    <_>
      <internalNodes>
        0 -1 44132 -4.2019911110401154e-02</internalNodes>
      <leafValues>
        -1. 1.4363743364810944e-01</leafValues></_>
    <_>
      <internalNodes>
        0 -1 127461 -1.0405982902739197e-04</internalNodes>
      <leafValues>
        4.1334557533264160e-01 -3.3905225992202759e-01</leafValues></_>
    <_>
      <internalNodes>
        0 -1 79630 -1.6743683954700828e-04</internalNodes>
      <leafValues>
        4.8114544153213501e-01 -2.6869830489158630e-01</leafValues></_>
    <_>
      <internalNodes>
        0 -1 16338 2.9259715229272842e-03</internalNodes>
      <leafValues>
        -2.2928331792354584e-01 5.4278826713562012e-01</leafValues></_>
    <_>
      <internalNodes>
        0 -1 162100 -1.4908044249750674e-04</internalNodes>
      <leafValues>
        -5.1634567975997925e-01 2.5415560603141785e-01</leafValues></_></weakClassifiers></stage23>
>>>>>>> 8f42376a339c8dffc6242c2a5b65310ee7336543
</opencv_storage>
