<?xml version="1.0"?>
<opencv_storage>
<stage16>
  <maxWeakCount>7</maxWeakCount>
  <stageThreshold>-5.3174805641174316e-01</stageThreshold>
  <weakClassifiers>
    <_>
      <internalNodes>
        0 -1 14282 -9.6500001847743988e-02</internalNodes>
      <leafValues>
        9.5454543828964233e-01 -2.1649484336376190e-01</leafValues></_>
    <_>
      <internalNodes>
        0 -1 16712 -4.2677633464336395e-02</internalNodes>
      <leafValues>
        5.6641465425491333e-01 -2.8507903218269348e-01</leafValues></_>
    <_>
      <internalNodes>
        0 -1 143929 -1.6546502709388733e-02</internalNodes>
      <leafValues>
        -1.7039358615875244e-01 8.1210756301879883e-01</leafValues></_>
    <_>
      <internalNodes>
        0 -1 98662 1.6400935128331184e-03</internalNodes>
      <leafValues>
        2.1744339168071747e-01 -5.9668910503387451e-01</leafValues></_>
    <_>
      <internalNodes>
        0 -1 158501 -1.3421380426734686e-03</internalNodes>
      <leafValues>
        4.1230702400207520e-01 -3.2910349965095520e-01</leafValues></_>
    <_>
      <internalNodes>
        0 -1 62948 -7.7284760773181915e-03</internalNodes>
      <leafValues>
        6.3330107927322388e-01 -2.3659496009349823e-01</leafValues></_>
    <_>
      <internalNodes>
        0 -1 19211 7.1169167757034302e-02</internalNodes>
      <leafValues>
        -2.5293603539466858e-01 5.6615471839904785e-01</leafValues></_></weakClassifiers></stage16>
</opencv_storage>
