<?xml version="1.0"?>
<opencv_storage>
<stage21>
  <maxWeakCount>5</maxWeakCount>
  <stageThreshold>-8.9660608768463135e-01</stageThreshold>
  <weakClassifiers>
    <_>
      <internalNodes>
        0 -1 5175 -5.3648781031370163e-03</internalNodes>
      <leafValues>
        2.6760563254356384e-01 -6.8932038545608521e-01</leafValues></_>
    <_>
      <internalNodes>
        0 -1 2866 1.9075426971539855e-03</internalNodes>
      <leafValues>
        -3.0022647976875305e-01 9.1448777914047241e-01</leafValues></_>
    <_>
      <internalNodes>
        0 -1 37671 1.5052778180688620e-03</internalNodes>
      <leafValues>
        -3.1889063119888306e-01 5.8333277702331543e-01</leafValues></_>
    <_>
      <internalNodes>
        0 -1 52182 1.4719925820827484e-03</internalNodes>
      <leafValues>
        -2.2605860233306885e-01 7.6715117692947388e-01</leafValues></_>
    <_>
      <internalNodes>
        0 -1 154951 1.0035296436399221e-03</internalNodes>
      <leafValues>
        -2.6433339715003967e-01 6.7602688074111938e-01</leafValues></_></weakClassifiers></stage21>
</opencv_storage>
