<?xml version="1.0"?>
<opencv_storage>
<stage25>
  <maxWeakCount>7</maxWeakCount>
  <stageThreshold>-7.1019005775451660e-01</stageThreshold>
  <weakClassifiers>
    <_>
      <internalNodes>
        0 -1 82749 -7.7816724777221680e-02</internalNodes>
      <leafValues>
        5.8823531866073608e-01 -2.3529411852359772e-01</leafValues></_>
    <_>
      <internalNodes>
        0 -1 43056 4.8962456639856100e-04</internalNodes>
      <leafValues>
        -2.9832875728607178e-01 4.6163773536682129e-01</leafValues></_>
    <_>
      <internalNodes>
        0 -1 58194 1.1250555980950594e-03</internalNodes>
      <leafValues>
        -2.9891607165336609e-01 5.0165140628814697e-01</leafValues></_>
    <_>
      <internalNodes>
        0 -1 98990 -5.2517041563987732e-02</internalNodes>
      <leafValues>
        1.6367398202419281e-01 -8.3764493465423584e-01</leafValues></_>
    <_>
      <internalNodes>
        0 -1 115078 1.2015931308269501e-02</internalNodes>
      <leafValues>
        1.1492042988538742e-01 -8.4029263257980347e-01</leafValues></_>
    <_>
      <internalNodes>
        0 -1 400 8.3845406770706177e-03</internalNodes>
      <leafValues>
        2.1540397405624390e-01 -6.8220692873001099e-01</leafValues></_>
    <_>
      <internalNodes>
        0 -1 156057 1.1042913421988487e-02</internalNodes>
      <leafValues>
        -2.7460610866546631e-01 5.7319945096969604e-01</leafValues></_></weakClassifiers></stage25>
</opencv_storage>
