<?xml version="1.0"?>
<opencv_storage>
<stage13>
<<<<<<< HEAD
  <maxWeakCount>5</maxWeakCount>
  <stageThreshold>-5.4056251049041748e-01</stageThreshold>
  <weakClassifiers>
    <_>
      <internalNodes>
        0 -1 69555 -2.9464226961135864e-01</internalNodes>
      <leafValues>
        -3.4523808956146240e-01 8.2857143878936768e-01</leafValues></_>
    <_>
      <internalNodes>
        0 -1 25804 -4.0463547338731587e-04</internalNodes>
      <leafValues>
        -6.3875430822372437e-01 3.2861846685409546e-01</leafValues></_>
    <_>
      <internalNodes>
        0 -1 20241 -3.9668154716491699e-01</internalNodes>
      <leafValues>
        -1.6787087917327881e-01 1.</leafValues></_>
    <_>
      <internalNodes>
        0 -1 128124 -1.0896135354414582e-03</internalNodes>
      <leafValues>
        -7.3820728063583374e-01 2.1625237166881561e-01</leafValues></_>
    <_>
      <internalNodes>
        0 -1 147699 -9.7864278359338641e-05</internalNodes>
      <leafValues>
        3.9504837989807129e-01 -3.5744470357894897e-01</leafValues></_></weakClassifiers></stage13>
=======
  <maxWeakCount>8</maxWeakCount>
  <stageThreshold>-1.1791739463806152e+00</stageThreshold>
  <weakClassifiers>
    <_>
      <internalNodes>
        0 -1 136797 -3.0677220784127712e-03</internalNodes>
      <leafValues>
        2.8000000119209290e-01 -7.4948662519454956e-01</leafValues></_>
    <_>
      <internalNodes>
        0 -1 143026 7.0672761648893356e-04</internalNodes>
      <leafValues>
        -3.6194881796836853e-01 4.9716445803642273e-01</leafValues></_>
    <_>
      <internalNodes>
        0 -1 129787 -4.0615769103169441e-04</internalNodes>
      <leafValues>
        5.7373636960983276e-01 -2.4425357580184937e-01</leafValues></_>
    <_>
      <internalNodes>
        0 -1 88539 -2.2066102246753871e-04</internalNodes>
      <leafValues>
        4.4330206513404846e-01 -2.8700301051139832e-01</leafValues></_>
    <_>
      <internalNodes>
        0 -1 148460 -1.3690851628780365e-03</internalNodes>
      <leafValues>
        -6.4783751964569092e-01 1.9356900453567505e-01</leafValues></_>
    <_>
      <internalNodes>
        0 -1 158784 -1.2978042832401115e-05</internalNodes>
      <leafValues>
        4.1755044460296631e-01 -3.1913015246391296e-01</leafValues></_>
    <_>
      <internalNodes>
        0 -1 114492 -7.1624212432652712e-04</internalNodes>
      <leafValues>
        -6.9365525245666504e-01 2.0765037834644318e-01</leafValues></_>
    <_>
      <internalNodes>
        0 -1 64928 -1.7863101093098521e-03</internalNodes>
      <leafValues>
        4.8733150959014893e-01 -3.1305930018424988e-01</leafValues></_></weakClassifiers></stage13>
>>>>>>> 9b34cb6b99be14fcc5a21167ecb874d5fae3551f
</opencv_storage>
