<?xml version="1.0"?>
<opencv_storage>
<stage11>
<<<<<<< HEAD
  <maxWeakCount>9</maxWeakCount>
  <stageThreshold>-7.4387508630752563e-01</stageThreshold>
  <weakClassifiers>
    <_>
      <internalNodes>
        0 -1 23330 -6.5206229686737061e-02</internalNodes>
      <leafValues>
        -4.2857143282890320e-01 5.4285717010498047e-01</leafValues></_>
    <_>
      <internalNodes>
        0 -1 151132 2.7122916071675718e-04</internalNodes>
      <leafValues>
        -2.7556467056274414e-01 6.3109034299850464e-01</leafValues></_>
    <_>
      <internalNodes>
        0 -1 133719 5.2380014676600695e-04</internalNodes>
      <leafValues>
        -2.3000858724117279e-01 8.0652624368667603e-01</leafValues></_>
    <_>
      <internalNodes>
        0 -1 26437 -4.3245926499366760e-02</internalNodes>
      <leafValues>
        5.7860714197158813e-01 -2.5772833824157715e-01</leafValues></_>
    <_>
      <internalNodes>
        0 -1 68583 1.6043337527662516e-03</internalNodes>
      <leafValues>
        -2.3401013016700745e-01 8.1671702861785889e-01</leafValues></_>
    <_>
      <internalNodes>
        0 -1 113107 -9.2543940991163254e-03</internalNodes>
      <leafValues>
        -2.5744545459747314e-01 6.6204565763473511e-01</leafValues></_>
    <_>
      <internalNodes>
        0 -1 150483 3.9581186138093472e-04</internalNodes>
      <leafValues>
        -1.6928428411483765e-01 8.9447659254074097e-01</leafValues></_>
    <_>
      <internalNodes>
        0 -1 106566 -7.3491115472279489e-05</internalNodes>
      <leafValues>
        5.4110229015350342e-01 -3.3655259013175964e-01</leafValues></_>
    <_>
      <internalNodes>
        0 -1 112653 -9.9976186174899340e-04</internalNodes>
      <leafValues>
        6.0057103633880615e-01 -2.9770007729530334e-01</leafValues></_></weakClassifiers></stage11>
=======
  <maxWeakCount>6</maxWeakCount>
  <stageThreshold>-1.3568550348281860e+00</stageThreshold>
  <weakClassifiers>
    <_>
      <internalNodes>
        0 -1 87954 6.6444268450140953e-03</internalNodes>
      <leafValues>
        -7.6923078298568726e-01 4.5454546809196472e-02</leafValues></_>
    <_>
      <internalNodes>
        0 -1 98854 -2.2304223477840424e-01</internalNodes>
      <leafValues>
        -7.4610078334808350e-01 4.4623196125030518e-02</leafValues></_>
    <_>
      <internalNodes>
        0 -1 138082 1.6860252071637660e-04</internalNodes>
      <leafValues>
        -3.7875857949256897e-01 4.9073499441146851e-01</leafValues></_>
    <_>
      <internalNodes>
        0 -1 89904 1.1147104669362307e-03</internalNodes>
      <leafValues>
        1.8348403275012970e-01 -7.9462707042694092e-01</leafValues></_>
    <_>
      <internalNodes>
        0 -1 108045 1.4826677215751261e-04</internalNodes>
      <leafValues>
        -3.9717558026313782e-01 3.5953724384307861e-01</leafValues></_>
    <_>
      <internalNodes>
        0 -1 1114 3.2096804352477193e-04</internalNodes>
      <leafValues>
        2.2625175118446350e-01 -6.3308429718017578e-01</leafValues></_></weakClassifiers></stage11>
>>>>>>> 9b34cb6b99be14fcc5a21167ecb874d5fae3551f
</opencv_storage>
